{"learner":{"attributes":{"scikit_learn":"{\"_estimator_type\": \"classifier\"}"},"feature_names":["month","is_weekend","demand","base_price","is_holiday","area_Center","area_North","area_South","service_type_carpet","service_type_mattress_double","service_type_mattress_single","service_type_sofa_2","service_type_sofa_3","service_type_sofa_l"],"feature_types":["int","i","int","int","int","i","i","i","i","i","i","i","i","i"],"gradient_booster":{"model":{"cats":{"enc":[],"feature_segments":[],"sorted_idx":[]},"gbtree_model_param":{"num_parallel_tree":"1","num_trees":"100"},"iteration_indptr":[0,1,2,3,4,5,6,7,8,9,10,11,12,13,14,15,16,17,18,19,20,21,22,23,24,25,26,27,28,29,30,31,32,33,34,35,36,37,38,39,40,41,42,43,44,45,46,47,48,49,50,51,52,53,54,55,56,57,58,59,60,61,62,63,64,65,66,67,68,69,70,71,72,73,74,75,76,77,78,79,80,81,82,83,84,85,86,87,88,89,90,91,92,93,94,95,96,97,98,99,100],"tree_info":[0,0,0,0,0,0,0,0,0,0,0,0,0,0,0,0,0,0,0,0,0,0,0,0,0,0,0,0,0,0,0,0,0,0,0,0,0,0,0,0,0,0,0,0,0,0,0,0,0,0,0,0,0,0,0,0,0,0,0,0,0,0,0,0,0,0,0,0,0,0,0,0,0,0,0,0,0,0,0,0,0,0,0,0,0,0,0,0,0,0,0,0,0,0,0,0,0,0,0,0],"trees":[{"base_weights":[-4.027341E-8,6.9992054E-1,-3.1079888E-1,2.4872229E-1,1.711893E-1,-6.0281837E-1,5.367083E-1,4.5903003E-1,-5.0981665E-1,-6.937549E-1,3.3597893E-1,2.523365E-1,8.6246306E-1,7.173188E-1,-3.9317778E-1,-4.6110144E-3,-8.270965E-2,-3.3749083E-1,-1.0346314E0,7.5198315E-2,-2.1644432E-2,4.2828584E-1,-4.1771367E-2,1.1139858E-1,-1.8095149E-2,-2.3997981E-2,9.6425796E-1,2.520716E-3,-5.999413E-2,1.7710525E-1,-7.3401845E-1,-1.1709198E0,5.0596334E-2,7.9046607E-1,-1.3050699E-1,1.4202484E-1,1.7561506E-2,4.389051E-2,-3.988498E-2,-1.0471604E-1,-5.6305467E-3,-1.3699256E-1,-1.30507E-2,1.1159285E-1,-1.8095149E-2,-5.999413E-2,5.0596334E-2],"categories":[],"categories_nodes":[],"categories_segments":[],"categories_sizes":[],"default_left":[0,0,0,0,0,0,0,0,0,0,0,0,0,0,0,0,0,0,0,0,0,0,0,0,0,0,0,0,0,0,0,0,0,0,0,0,0,0,0,0,0,0,0,0,0,0,0],"id":0,"left_children":[1,3,5,7,-1,9,11,13,15,17,19,21,23,25,27,-1,-1,29,31,-1,-1,33,-1,-1,-1,-1,35,-1,-1,37,39,41,-1,43,45,-1,-1,-1,-1,-1,-1,-1,-1,-1,-1,-1,-1],"loss_changes":[1.6315088E1,1.0104645E1,1.3177429E1,2.9652498E0,0E0,3.5709753E0,1.0643198E0,3.3483818E0,5.783465E-1,4.0193443E0,1.1110866E0,1.2166384E0,1.7857943E0,2.842279E0,3.5129213E-1,0E0,0E0,4.021906E0,4.3505955E0,0E0,0E0,1.6140188E0,0E0,0E0,0E0,0E0,2.979578E0,0E0,0E0,1.5481644E0,2.2684102E0,3.2884312E0,0E0,1.6787813E0,1.4371501E0,0E0,0E0,0E0,0E0,0E0,0E0,0E0,0E0,0E0,0E0,0E0,0E0],"parents":[2147483647,0,0,1,1,2,2,3,3,5,5,6,6,7,7,8,8,9,9,10,10,11,11,12,12,13,13,14,14,17,17,18,18,21,21,26,26,29,29,30,30,31,31,33,33,34,34],"right_children":[2,4,6,8,-1,10,12,14,16,18,20,22,24,26,28,-1,-1,30,32,-1,-1,34,-1,-1,-1,-1,36,-1,-1,38,40,42,-1,44,46,-1,-1,-1,-1,-1,-1,-1,-1,-1,-1,-1,-1],"split_conditions":[3E2,1E0,1E0,1E0,1.711893E-1,2.3E1,1E0,1E0,1.6E1,4E2,1E0,1.1E1,1E0,8E0,7E0,-4.6110144E-3,-8.270965E-2,1.1E1,1E0,7.5198315E-2,-2.1644432E-2,1E0,-4.1771367E-2,1.1139858E-1,-1.8095149E-2,-2.3997981E-2,1.6E1,2.520716E-3,-5.999413E-2,1E0,8E0,1E0,5.0596334E-2,7E0,7E0,1.4202484E-1,1.7561506E-2,4.389051E-2,-3.988498E-2,-1.0471604E-1,-5.6305467E-3,-1.3699256E-1,-1.30507E-2,1.1159285E-1,-1.8095149E-2,-5.999413E-2,5.0596334E-2],"split_indices":[3,7,1,9,0,2,5,12,2,3,7,0,10,2,0,0,0,2,4,0,0,12,0,0,0,0,2,0,0,12,0,10,0,0,0,0,0,0,0,0,0,0,0,0,0,0,0],"split_type":[0,0,0,0,0,0,0,0,0,0,0,0,0,0,0,0,0,0,0,0,0,0,0,0,0,0,0,0,0,0,0,0,0,0,0,0,0,0,0,0,0,0,0,0,0,0,0],"sum_hessian":[7.3E1,2.2062695E1,5.0937305E1,1.6120832E1,5.94186E0,3.8098644E1,1.2838663E1,1.293062E1,3.1902132E0,3.497209E1,3.1265504E0,7.802229E0,5.036434E0,1.0044574E1,2.8860466E0,1.7613373E0,1.428876E0,1.8073158E1,1.6898935E1,1.5774225E0,1.5491279E0,6.46531E0,1.3369186E0,4.003682E0,1.0327519E0,2.0655038E0,7.9790697E0,1.2449613E0,1.6410853E0,8.106396E0,9.9667635E0,1.5745931E1,1.1530039E0,3.671221E0,2.794089E0,4.5483527E0,3.430717E0,5.736725E0,2.3696706E0,6.4440894E0,3.5226746E0,1.2951841E1,2.794089E0,2.638469E0,1.0327519E0,1.6410853E0,1.1530039E0],"tree_param":{"num_deleted":"0","num_feature":"14","num_nodes":"47","size_leaf_vector":"1"}},{"base_weights":[1.9817033E-3,6.3906056E-1,-2.8067556E-1,2.2372736E-1,1.5755531E-1,-5.47708E-1,4.9373236E-1,4.1956E-1,-4.799709E-1,-6.316471E-1,3.155564E-1,2.3223576E-1,7.9339E-1,6.593597E-1,-3.687975E-1,-4.3169144E-3,-7.792503E-2,-3.0969498E-1,-9.40105E-1,7.065931E-2,-2.0330576E-2,3.973198E-1,-3.9391864E-2,1.02748804E-1,-1.7176546E-2,-2.2383273E-2,8.880131E-1,-3.1235458E-3,-6.33926E-2,4.7610104E-1,-5.2031744E-1,-1.147304E0,6.533385E-2,7.3279965E-1,-1.2000776E-1,1.3094114E-1,1.6202722E-2,-2.472019E-2,1.17657594E-1,-1.6381733E-2,-7.341784E-2,-1.3577548E-1,-2.6413506E-2,-6.067548E-2,5.3849574E-2,1.0374271E-1,-1.7176546E-2,-5.629887E-2,4.790373E-2],"categories":[],"categories_nodes":[],"categories_segments":[],"categories_sizes":[],"default_left":[0,0,0,0,0,0,0,0,0,0,0,0,0,0,0,0,0,0,0,0,0,0,0,0,0,0,0,0,0,0,0,0,0,0,0,0,0,0,0,0,0,0,0,0,0,0,0,0,0],"id":1,"left_children":[1,3,5,7,-1,9,11,13,15,17,19,21,23,25,27,-1,-1,29,31,-1,-1,33,-1,-1,-1,-1,35,-1,-1,37,39,41,43,45,47,-1,-1,-1,-1,-1,-1,-1,-1,-1,-1,-1,-1,-1,-1],"loss_changes":[1.3472605E1,8.590403E0,1.098815E1,2.55698E0,0E0,3.0262985E0,8.982904E-1,2.8720176E0,5.1380897E-1,3.2729712E0,9.8041856E-1,1.0652363E0,1.5375447E0,2.4244323E0,3.2785755E-1,0E0,0E0,3.4009151E0,3.7909727E0,0E0,0E0,1.3817469E0,0E0,0E0,0E0,0E0,2.5277252E0,0E0,0E0,2.5958033E0,1.0616574E0,2.4002438E0,1.5968382E0,1.4630919E0,1.2759259E0,0E0,0E0,0E0,0E0,0E0,0E0,0E0,0E0,0E0,0E0,0E0,0E0,0E0,0E0],"parents":[2147483647,0,0,1,1,2,2,3,3,5,5,6,6,7,7,8,8,9,9,10,10,11,11,12,12,13,13,14,14,17,17,18,18,21,21,26,26,29,29,30,30,31,31,32,32,33,33,34,34],"right_children":[2,4,6,8,-1,10,12,14,16,18,20,22,24,26,28,-1,-1,30,32,-1,-1,34,-1,-1,-1,-1,36,-1,-1,38,40,42,44,46,48,-1,-1,-1,-1,-1,-1,-1,-1,-1,-1,-1,-1,-1,-1],"split_conditions":[3E2,1E0,1E0,1E0,1.5755531E-1,2.3E1,1E0,1E0,1.6E1,4E2,1E0,1.1E1,1E0,8E0,1E0,-4.3169144E-3,-7.792503E-2,8E0,1E0,7.065931E-2,-2.0330576E-2,1E0,-3.9391864E-2,1.02748804E-1,-1.7176546E-2,-2.2383273E-2,1.6E1,-3.1235458E-3,-6.33926E-2,7E0,1.2E1,1E0,2E0,7E0,7E0,1.3094114E-1,1.6202722E-2,-2.472019E-2,1.17657594E-1,-1.6381733E-2,-7.341784E-2,-1.3577548E-1,-2.6413506E-2,-6.067548E-2,5.3849574E-2,1.0374271E-1,-1.7176546E-2,-5.629887E-2,4.790373E-2],"split_indices":[3,7,1,9,0,2,5,12,2,3,7,0,10,2,5,0,0,2,9,0,0,12,0,0,0,0,2,0,0,2,2,10,0,0,0,0,0,0,0,0,0,0,0,0,0,0,0,0,0],"split_type":[0,0,0,0,0,0,0,0,0,0,0,0,0,0,0,0,0,0,0,0,0,0,0,0,0,0,0,0,0,0,0,0,0,0,0,0,0,0,0,0,0,0,0,0,0,0,0,0,0],"sum_hessian":[7.2820564E1,2.1992023E1,5.082854E1,1.6093485E1,5.8985395E0,3.8013435E1,1.2815105E1,1.2905722E1,3.187763E0,3.4889294E1,3.124141E0,7.7911506E0,5.0239544E0,1.00211525E1,2.8845687E0,1.761328E0,1.4264351E0,1.8051792E1,1.6837502E1,1.5751946E0,1.5489465E0,6.454815E0,1.3363357E0,3.9912868E0,1.0326674E0,2.0652065E0,7.955946E0,1.7606804E0,1.1238884E0,3.549346E0,1.4502446E1,1.384355E1,2.9939513E0,3.6629393E0,2.7918758E0,4.525493E0,3.4304526E0,2.0645783E0,1.4847677E0,6.099971E0,8.402475E0,1.0745607E1,3.097942E0,1.1203058E0,1.8736455E0,2.630272E0,1.0326674E0,1.6396096E0,1.1522663E0],"tree_param":{"num_deleted":"0","num_feature":"14","num_nodes":"49","size_leaf_vector":"1"}},{"base_weights":[3.79488E-3,5.862097E-1,-2.5381985E-1,2.0098819E-1,1.4663209E-1,-4.9858513E-1,4.556336E-1,3.8384512E-1,-4.523991E-1,-5.763377E-1,2.967273E-1,5.314638E-1,-2.4634201E-2,6.085105E-1,-3.4932262E-1,-4.041601E-3,-7.3557936E-2,-6.550394E-1,3.6608493E-1,6.65031E-2,-1.9099057E-2,2.9096985E-1,8.165502E-1,-2.088099E-2,8.2168716E-1,-2.2797962E-3,-6.093799E-2,-3.0031857E-1,-1.0294971E0,1.1474782E-1,-6.41848E-2,6.906872E-2,1.0012903E-1,1.093682E-1,-1.6305918E-2,1.21620275E-1,1.4950681E-2,1.770232E-2,-7.528325E-2,-1.1494761E-1,-4.6663847E-2,-1.3888681E-2,4.817462E-2],"categories":[],"categories_nodes":[],"categories_segments":[],"categories_sizes":[],"default_left":[0,0,0,0,0,0,0,0,0,0,0,0,0,0,0,0,0,0,0,0,0,0,0,0,0,0,0,0,0,0,0,0,0,0,0,0,0,0,0,0,0,0,0],"id":2,"left_children":[1,3,5,7,-1,9,11,13,15,17,19,21,-1,23,25,-1,-1,27,29,-1,-1,31,33,-1,35,-1,-1,37,39,-1,-1,-1,41,-1,-1,-1,-1,-1,-1,-1,-1,-1,-1],"loss_changes":[1.115852E1,7.437257E0,9.182915E0,2.207314E0,0E0,2.5716772E0,8.6293197E-1,2.4923317E0,4.5804924E-1,2.8880177E0,8.666356E-1,6.3503385E-1,0E0,2.0809684E0,3.1571907E-1,0E0,0E0,4.1154804E0,3.409095E0,0E0,0E0,5.759899E-1,1.6091106E0,0E0,2.1768394E0,0E0,0E0,4.133286E0,5.3012276E-1,0E0,0E0,0E0,6.957173E-1,0E0,0E0,0E0,0E0,0E0,0E0,0E0,0E0,0E0,0E0],"parents":[2147483647,0,0,1,1,2,2,3,3,5,5,6,6,7,7,8,8,9,9,10,10,11,11,13,13,14,14,17,17,18,18,21,21,22,22,24,24,27,27,28,28,32,32],"right_children":[2,4,6,8,-1,10,12,14,16,18,20,22,-1,24,26,-1,-1,28,30,-1,-1,32,34,-1,36,-1,-1,38,40,-1,-1,-1,42,-1,-1,-1,-1,-1,-1,-1,-1,-1,-1],"split_conditions":[3E2,1E0,1E0,1E0,1.4663209E-1,2.3E1,1E0,1E0,1.6E1,1E0,1E0,1E0,-2.4634201E-2,8E0,9E0,-4.041601E-3,-7.3557936E-2,1.2E1,1E0,6.65031E-2,-1.9099057E-2,4E0,1E0,-2.088099E-2,1.6E1,-2.2797962E-3,-6.093799E-2,4E2,1.9E1,1.1474782E-1,-6.41848E-2,6.906872E-2,9E0,1.093682E-1,-1.6305918E-2,1.21620275E-1,1.4950681E-2,1.770232E-2,-7.528325E-2,-1.1494761E-1,-4.6663847E-2,-1.3888681E-2,4.817462E-2],"split_indices":[3,7,1,9,0,2,13,12,2,4,7,5,0,2,0,0,0,2,6,0,0,0,10,0,2,0,0,3,2,0,0,0,0,0,0,0,0,0,0,0,0,0,0],"split_type":[0,0,0,0,0,0,0,0,0,0,0,0,0,0,0,0,0,0,0,0,0,0,0,0,0,0,0,0,0,0,0,0,0,0,0,0,0,0,0,0,0,0,0],"sum_hessian":[7.237928E1,2.1805632E1,5.057365E1,1.6021463E1,5.784169E0,3.7822063E1,1.2751589E1,1.2840463E1,3.1810002E0,3.4704556E1,3.1175082E0,1.1727627E1,1.023962E0,9.958802E0,2.8816605E0,1.7613021E0,1.419698E0,3.2311188E1,2.3933673E0,1.5690625E0,1.5484458E0,7.4573627E0,4.2702646E0,2.0643935E0,7.894408E0,1.7597747E0,1.1218859E0,1.7518272E1,1.4792914E1,1.2702035E0,1.1231637E0,1.563475E0,5.8938875E0,3.237834E0,1.0324308E0,4.4646688E0,3.4297395E0,8.821533E0,8.696738E0,1.1334618E1,3.4582965E0,4.015157E0,1.8787304E0],"tree_param":{"num_deleted":"0","num_feature":"14","num_nodes":"43","size_leaf_vector":"1"}},{"base_weights":[5.9180325E-3,-2.0261964E-1,6.1083686E-1,3.712553E-1,-4.5511514E-1,7.294453E-1,1.6888302E-2,1.8377924E-2,1.2846844E-1,-5.273539E-1,2.793182E-1,5.358924E-1,1.255288E-1,-3.0962327E-2,4.7429428E-2,3.719905E-1,-3.708111E-1,-2.4699289E-1,-8.000735E-1,6.26794E-2,-1.7944215E-2,1.0519918E-1,2.6900983E-1,-1.0389329E-1,8.0330215E-2,-2.4038866E-2,-7.6081514E-2,4.361734E-1,-4.3242866E-1,-9.9229604E-1,1.06310144E-1,5.591794E-1,-1.3556227E-1,1.48852905E-2,-4.005142E-2,3.0884493E-2,-3.08925E-2,-2.4246974E-2,1.1003121E-1,-8.486849E-2,-2.8496264E-2,-1.1944242E-1,-1.8221283E-2,-5.4737207E-2,5.4904986E-2,7.097346E-2,-1.628816E-3,2.9848266E-2,-4.389759E-2],"categories":[],"categories_nodes":[],"categories_segments":[],"categories_sizes":[],"default_left":[0,0,0,0,0,0,0,0,0,0,0,0,0,0,0,0,0,0,0,0,0,0,0,0,0,0,0,0,0,0,0,0,0,0,0,0,0,0,0,0,0,0,0,0,0,0,0,0,0],"id":3,"left_children":[1,3,5,7,9,11,13,15,-1,17,19,21,-1,-1,-1,23,25,27,29,-1,-1,-1,31,33,-1,35,-1,37,39,41,43,45,47,-1,-1,-1,-1,-1,-1,-1,-1,-1,-1,-1,-1,-1,-1,-1,-1],"loss_changes":[9.307484E0,8.122367E0,1.320004E0,5.5597067E0,2.1934428E0,9.2935085E-1,7.698959E-1,1.9971195E0,0E0,2.513605E0,7.672349E-1,1.5421011E0,0E0,0E0,0E0,1.6387467E0,9.1920424E-1,2.5868945E0,3.1593542E0,0E0,0E0,0E0,1.2588575E0,3.960839E-1,0E0,5.413164E-1,0E0,2.312777E0,7.029643E-1,2.1660872E0,1.4495263E0,5.3691304E-1,7.913376E-1,0E0,0E0,0E0,0E0,0E0,0E0,0E0,0E0,0E0,0E0,0E0,0E0,0E0,0E0,0E0,0E0],"parents":[2147483647,0,0,1,1,2,2,3,3,4,4,5,5,6,6,7,7,9,9,10,10,11,11,15,15,16,16,17,17,18,18,22,22,23,23,25,25,27,27,28,28,29,29,30,30,31,31,32,32],"right_children":[2,4,6,8,10,12,14,16,-1,18,20,22,-1,-1,-1,24,26,28,30,-1,-1,-1,32,34,-1,36,-1,38,40,42,44,46,48,-1,-1,-1,-1,-1,-1,-1,-1,-1,-1,-1,-1,-1,-1,-1,-1],"split_conditions":[1E0,3E2,1.1E1,1E0,2.3E1,1E0,1.2E1,1.3E1,1.2846844E-1,4E2,1E0,3E2,1.255288E-1,-3.0962327E-2,4.7429428E-2,1E0,1E0,8E0,1E0,6.26794E-2,-1.7944215E-2,1.0519918E-1,1E0,1E0,8.0330215E-2,1E0,-7.6081514E-2,7E0,3E0,1E0,2E0,2.1E1,4E2,1.48852905E-2,-4.005142E-2,3.0884493E-2,-3.08925E-2,-2.4246974E-2,1.1003121E-1,-8.486849E-2,-2.8496264E-2,-1.1944242E-1,-1.8221283E-2,-5.4737207E-2,5.4904986E-2,7.097346E-2,-1.628816E-3,2.9848266E-2,-4.389759E-2],"split_indices":[1,3,0,7,2,11,0,2,0,3,7,3,0,0,0,5,9,2,9,0,0,0,7,12,0,5,0,2,0,10,0,2,3,0,0,0,0,0,0,0,0,0,0,0,0,0,0,0,0],"split_type":[0,0,0,0,0,0,0,0,0,0,0,0,0,0,0,0,0,0,0,0,0,0,0,0,0,0,0,0,0,0,0,0,0,0,0,0,0,0,0,0,0,0,0,0,0,0,0,0,0],"sum_hessian":[7.180093E1,5.3888596E1,1.7912327E1,1.632182E1,3.756678E1,1.4740581E1,3.171746E0,1.2509318E1,3.8125E0,3.4459324E1,3.1074553E0,1.2250508E1,2.490072E0,2.0391917E0,1.1325542E0,6.577379E0,5.931939E0,1.7931284E1,1.6528038E1,1.5597711E0,1.5476843E0,3.1729188E0,9.077589E0,3.488023E0,3.0893564E0,3.7019694E0,2.2299697E0,3.5394387E0,1.4391846E1,1.3557935E1,2.9701033E0,5.0636544E0,4.013935E0,2.152274E0,1.3357491E0,1.6683898E0,2.0335796E0,2.0646298E0,1.474809E0,2.5209033E0,1.1870942E1,1.0470851E1,3.0870843E0,1.1039094E0,1.8661939E0,3.8286707E0,1.2349838E0,1.6581454E0,2.3557894E0],"tree_param":{"num_deleted":"0","num_feature":"14","num_nodes":"49","size_leaf_vector":"1"}},{"base_weights":[9.403255E-3,-1.8437476E-1,5.7021594E-1,3.4425458E-1,-4.1662323E-1,6.8100274E-1,1.9167513E-2,1.5081024E-2,1.2166126E-1,-2.871476E-1,-9.01925E-1,4.9785024E-1,1.18439995E-1,-2.8859273E-2,4.4961236E-2,3.435958E-1,-3.4553632E-1,-5.592483E-1,2.2457878E-1,-1.1940066E-1,-5.9480025E-3,9.8567285E-2,2.4840614E-1,-9.9185124E-2,7.478762E-2,-2.1619117E-2,-7.119966E-2,-1.9754171E-1,-8.497738E-1,-1.0743361E-1,6.2473285E-1,5.172785E-1,-1.2480167E-1,1.3877778E-2,-3.7783753E-2,2.8972272E-2,-2.8796598E-2,3.721867E-2,-7.258389E-2,-9.9096544E-2,-5.006366E-3,-3.385767E-2,5.2099507E-2,-6.4765923E-3,1.3612556E-1,6.575354E-2,-1.5387513E-3,2.800843E-2,-4.0794298E-2],"categories":[],"categories_nodes":[],"categories_segments":[],"categories_sizes":[],"default_left":[0,0,0,0,0,0,0,0,0,0,0,0,0,0,0,0,0,0,0,0,0,0,0,0,0,0,0,0,0,0,0,0,0,0,0,0,0,0,0,0,0,0,0,0,0,0,0,0,0],"id":4,"left_children":[1,3,5,7,9,11,13,15,-1,17,19,21,-1,-1,-1,23,25,27,29,-1,-1,-1,31,33,-1,35,-1,37,39,41,43,45,47,-1,-1,-1,-1,-1,-1,-1,-1,-1,-1,-1,-1,-1,-1,-1,-1],"loss_changes":[7.9475965E0,6.820971E0,1.1332245E0,4.9061646E0,2.1438174E0,8.490443E-1,6.8243575E-1,1.7137226E0,0E0,4.5330696E0,1.795733E0,1.357337E0,0E0,0E0,0E0,1.4251058E0,8.056457E-1,2.0338464E0,1.6217747E0,0E0,0E0,0E0,1.0729127E0,3.498164E-1,0E0,4.7341043E-1,0E0,3.4712691E0,1.2281351E0,1.2293221E0,2.8574216E0,4.6101213E-1,6.890183E-1,0E0,0E0,0E0,0E0,0E0,0E0,0E0,0E0,0E0,0E0,0E0,0E0,0E0,0E0,0E0,0E0],"parents":[2147483647,0,0,1,1,2,2,3,3,4,4,5,5,6,6,7,7,9,9,10,10,11,11,15,15,16,16,17,17,18,18,22,22,23,23,25,25,27,27,28,28,29,29,30,30,31,31,32,32],"right_children":[2,4,6,8,10,12,14,16,-1,18,20,22,-1,-1,-1,24,26,28,30,-1,-1,-1,32,34,-1,36,-1,38,40,42,44,46,48,-1,-1,-1,-1,-1,-1,-1,-1,-1,-1,-1,-1,-1,-1,-1,-1],"split_conditions":[1E0,3E2,1.1E1,1E0,1.1E1,1E0,1.2E1,1.3E1,1.2166126E-1,7E0,1E0,3E2,1.18439995E-1,-2.8859273E-2,4.4961236E-2,1E0,1E0,1.1E1,1E0,-1.1940066E-1,-5.9480025E-3,9.8567285E-2,1E0,1E0,7.478762E-2,1E0,-7.119966E-2,4E2,2.3E1,1.9E1,4E2,2.1E1,4E2,1.3877778E-2,-3.7783753E-2,2.8972272E-2,-2.8796598E-2,3.721867E-2,-7.258389E-2,-9.9096544E-2,-5.006366E-3,-3.385767E-2,5.2099507E-2,-6.4765923E-3,1.3612556E-1,6.575354E-2,-1.5387513E-3,2.800843E-2,-4.0794298E-2],"split_indices":[1,3,0,7,0,11,0,2,0,0,5,3,0,0,0,5,9,2,7,0,0,0,7,12,0,5,0,3,2,2,3,2,3,0,0,0,0,0,0,0,0,0,0,0,0,0,0,0,0],"split_type":[0,0,0,0,0,0,0,0,0,0,0,0,0,0,0,0,0,0,0,0,0,0,0,0,0,0,0,0,0,0,0,0,0,0,0,0,0,0,0,0,0,0,0,0,0,0,0,0,0],"sum_hessian":[7.1165596E1,5.3389214E1,1.7776379E1,1.6149185E1,3.724003E1,1.4604376E1,3.172002E0,1.2463518E1,3.6856678E0,3.0653536E1,6.5864925E0,1.2166708E1,2.4376686E0,2.0417416E0,1.1302605E0,6.5467596E0,5.9167585E0,1.9951721E1,1.0701814E1,4.5809383E0,2.005554E0,3.1178467E0,9.048861E0,3.4847794E0,3.0619805E0,3.7028096E0,2.213949E0,9.635451E0,1.0316271E1,6.2487082E0,4.4531054E0,5.035251E0,4.0136094E0,2.1503754E0,1.3344041E0,1.6667384E0,2.0360713E0,4.778115E0,4.8573365E0,8.564944E0,1.751326E0,4.9056053E0,1.3431032E0,2.7710454E0,1.68206E0,3.800194E0,1.2350571E0,1.6561489E0,2.3574605E0],"tree_param":{"num_deleted":"0","num_feature":"14","num_nodes":"49","size_leaf_vector":"1"}},{"base_weights":[1.2336824E-2,-1.6796869E-1,5.3357583E-1,3.2000303E-1,-3.816987E-1,6.374418E-1,2.1141632E-2,1.2170304E-2,1.15752816E-1,-4.4625688E-1,4.104122E-1,4.6338034E-1,1.122657E-1,-2.8052637E-2,4.4344675E-2,2.0783481E-1,-5.1394206E-1,-5.194835E-1,2.4444161E-1,1.1265025E-1,-5.5274237E-2,9.264333E-2,2.2964719E-1,4.005034E-1,-5.1907517E-2,-1.2768725E-2,-7.0471264E-2,-2.1034184E-1,-8.527357E-1,5.711413E-2,-1.7733138E-2,2.973904E-2,7.432981E-2,-2.2930143E-2,5.653405E-2,1.7586736E-2,-5.9129644E-2,-1.1503949E-1,-5.6119155E-2,5.0787896E-2,-3.698824E-2],"categories":[],"categories_nodes":[],"categories_segments":[],"categories_sizes":[],"default_left":[0,0,0,0,0,0,0,0,0,0,0,0,0,0,0,0,0,0,0,0,0,0,0,0,0,0,0,0,0,0,0,0,0,0,0,0,0,0,0,0,0],"id":5,"left_children":[1,3,5,7,9,11,13,15,-1,17,19,21,-1,-1,-1,23,25,27,29,-1,-1,-1,31,33,-1,-1,-1,35,37,-1,-1,39,-1,-1,-1,-1,-1,-1,-1,-1,-1],"loss_changes":[6.8063025E0,5.739436E0,9.768958E-1,4.3556886E0,2.121811E0,7.835665E-1,6.5567106E-1,1.4866831E0,0E0,1.9241586E0,2.9524043E0,1.2012126E0,0E0,0E0,0E0,1.6760194E0,1.9899237E-1,3.163396E0,6.643135E-1,0E0,0E0,0E0,1.0059125E0,1.0484844E0,0E0,0E0,0E0,2.7758152E0,6.810417E-1,0E0,0E0,1.7639256E0,0E0,0E0,0E0,0E0,0E0,0E0,0E0,0E0,0E0],"parents":[2147483647,0,0,1,1,2,2,3,3,4,4,5,5,6,6,7,7,9,9,10,10,11,11,15,15,16,16,17,17,18,18,22,22,23,23,27,27,28,28,31,31],"right_children":[2,4,6,8,10,12,14,16,-1,18,20,22,-1,-1,-1,24,26,28,30,-1,-1,-1,32,34,-1,-1,-1,36,38,-1,-1,40,-1,-1,-1,-1,-1,-1,-1,-1,-1],"split_conditions":[1E0,3E2,1.1E1,1E0,1E0,1E0,1E0,1.9E1,1.15752816E-1,2.3E1,1E0,3E2,1.122657E-1,-2.8052637E-2,4.4344675E-2,1E0,1E0,1.2E1,1E0,1.1265025E-1,-5.5274237E-2,9.264333E-2,9E0,7E0,-5.1907517E-2,-1.2768725E-2,-7.0471264E-2,4E2,1.4E1,5.711413E-2,-1.7733138E-2,1.4E1,7.432981E-2,-2.2930143E-2,5.653405E-2,1.7586736E-2,-5.9129644E-2,-1.1503949E-1,-5.6119155E-2,5.0787896E-2,-3.698824E-2],"split_indices":[1,3,0,7,4,11,7,2,0,2,6,3,0,0,0,12,5,2,7,0,0,0,0,2,0,0,0,3,2,0,0,2,0,0,0,0,0,0,0,0,0],"split_type":[0,0,0,0,0,0,0,0,0,0,0,0,0,0,0,0,0,0,0,0,0,0,0,0,0,0,0,0,0,0,0,0,0,0,0,0,0,0,0,0,0],"sum_hessian":[7.0467514E1,5.2860058E1,1.760745E1,1.5949095E1,3.6910965E1,1.4437204E1,3.1702468E0,1.2404388E1,3.5447068E0,3.4533092E1,2.3778734E0,1.2064352E1,2.372852E0,2.04509E0,1.1251568E0,9.48268E0,2.9217076E0,3.1447021E1,3.08607E0,1.2665882E0,1.1112853E0,3.0527864E0,9.011566E0,7.850837E0,1.6318433E0,1.5178425E0,1.4038651E0,1.7159853E1,1.42871685E1,1.5394719E0,1.5465981E0,7.2484384E0,1.7631276E0,1.5474199E0,6.303417E0,8.78849E0,8.371362E0,5.611797E0,8.675371E0,3.176688E0,4.07175E0],"tree_param":{"num_deleted":"0","num_feature":"14","num_nodes":"41","size_leaf_vector":"1"}},{"base_weights":[1.4216789E-2,-1.5485322E-1,5.0202495E-1,2.9312375E-1,-3.5044557E-1,5.99943E-1,2.296913E-2,3.4450886E-3,1.10553384E-1,-4.1114593E-1,3.87569E-1,4.345114E-1,1.068213E-1,-2.6729746E-2,4.2792074E-2,3.0620688E-1,-3.260125E-1,-4.7972515E-1,2.3062237E-1,1.0652804E-1,-5.255247E-2,8.7296255E-2,2.161801E-1,-9.209874E-2,6.741881E-1,-2.4292668E-2,-6.6740476E-2,-1.9290651E-1,-7.920326E-1,5.3981252E-2,-1.6663095E-2,4.6502355E-1,-1.2481056E-1,1.1198661E-2,-3.2764528E-2,2.8961405E-2,8.627502E-2,-3.30057E-2,2.2536142E-2,-7.418051E-2,6.205862E-3,-1.07861E-1,-5.161309E-2,5.8334243E-2,5.910673E-4,2.6410937E-2,-3.9475925E-2],"categories":[],"categories_nodes":[],"categories_segments":[],"categories_sizes":[],"default_left":[0,0,0,0,0,0,0,0,0,0,0,0,0,0,0,0,0,0,0,0,0,0,0,0,0,0,0,0,0,0,0,0,0,0,0,0,0,0,0,0,0,0,0,0,0,0,0],"id":6,"left_children":[1,3,5,7,9,11,13,15,-1,17,19,21,-1,-1,-1,23,25,27,29,-1,-1,-1,31,33,35,37,-1,39,41,-1,-1,43,45,-1,-1,-1,-1,-1,-1,-1,-1,-1,-1,-1,-1,-1,-1],"loss_changes":[5.908437E0,4.7698874E0,8.5084105E-1,3.9340672E0,1.8407216E0,7.183199E-1,6.04297E-1,1.4302385E0,0E0,1.6583352E0,2.6434653E0,1.0524011E0,0E0,0E0,0E0,1.1564023E0,6.916004E-1,2.7221498E0,5.898941E-1,0E0,0E0,0E0,9.052425E-1,2.513398E-1,4.0272713E-2,4.3205512E-1,0E0,2.5724483E0,6.326933E-1,0E0,0E0,3.2159507E-1,6.292705E-1,0E0,0E0,0E0,0E0,0E0,0E0,0E0,0E0,0E0,0E0,0E0,0E0,0E0,0E0],"parents":[2147483647,0,0,1,1,2,2,3,3,4,4,5,5,6,6,7,7,9,9,10,10,11,11,15,15,16,16,17,17,18,18,22,22,23,23,24,24,25,25,27,27,28,28,31,31,32,32],"right_children":[2,4,6,8,10,12,14,16,-1,18,20,22,-1,-1,-1,24,26,28,30,-1,-1,-1,32,34,36,38,-1,40,42,-1,-1,44,46,-1,-1,-1,-1,-1,-1,-1,-1,-1,-1,-1,-1,-1,-1],"split_conditions":[1E0,3E2,1.1E1,1E0,1E0,1E0,1.2E1,1.3E1,1.10553384E-1,2.3E1,1E0,3E2,1.068213E-1,-2.6729746E-2,4.2792074E-2,1E0,1E0,1.2E1,1E0,1.0652804E-1,-5.255247E-2,8.7296255E-2,1E0,1E0,9E0,1.7E1,-6.6740476E-2,7E0,1.4E1,5.3981252E-2,-1.6663095E-2,2.1E1,4E2,1.1198661E-2,-3.2764528E-2,2.8961405E-2,8.627502E-2,-3.30057E-2,2.2536142E-2,-7.418051E-2,6.205862E-3,-1.07861E-1,-5.161309E-2,5.8334243E-2,5.910673E-4,2.6410937E-2,-3.9475925E-2],"split_indices":[1,3,0,7,4,11,0,2,0,2,6,3,0,0,0,5,9,2,7,0,0,0,7,12,2,2,0,2,2,0,0,2,3,0,0,0,0,0,0,0,0,0,0,0,0,0,0],"split_type":[0,0,0,0,0,0,0,0,0,0,0,0,0,0,0,0,0,0,0,0,0,0,0,0,0,0,0,0,0,0,0,0,0,0,0,0,0,0,0,0,0,0,0,0,0,0,0],"sum_hessian":[6.9697624E1,5.2265434E1,1.7432188E1,1.5732861E1,3.6532574E1,1.4264257E1,3.1679304E0,1.2337836E1,3.395025E0,3.4165432E1,2.367142E0,1.1965103E1,2.2991538E0,2.0432615E0,1.1246687E0,6.4661803E0,5.871656E0,3.109511E1,3.070322E0,1.2630308E0,1.1041112E0,2.9807825E0,8.984321E0,3.4651716E0,3.0010085E0,3.6855512E0,2.1861045E0,1.7052252E1,1.4042858E1,1.5247313E0,1.5455908E0,4.9836664E0,4.0006547E0,2.1376271E0,1.3275445E0,1.8216485E0,1.17936E0,1.5118512E0,2.1737E0,4.8029156E0,1.2249336E1,5.4610763E0,8.581782E0,3.747345E0,1.2363216E0,1.6479928E0,2.3526616E0],"tree_param":{"num_deleted":"0","num_feature":"14","num_nodes":"47","size_leaf_vector":"1"}},{"base_weights":[1.6539771E-2,-1.411023E-1,4.7141004E-1,2.754866E-1,-3.2236058E-1,5.636505E-1,2.4568403E-2,4.395464E-3,1.0592099E-1,-2.0906512E-1,-7.5533265E-1,4.0546086E-1,1.0196727E-1,-2.6010687E-2,4.2210672E-2,1.8720712E-1,-4.861833E-1,-4.6434838E-1,2.6010585E-1,-1.04334734E-1,2.858127E-3,8.2426116E-2,2.0016624E-1,3.934511E-1,-4.1701108E-1,-1.0422462E-4,-7.1149714E-2,-1.8578334E-1,-7.592697E-1,3.966811E-1,-5.52722E-2,1.4637522E-2,6.8263695E-2,-2.6403088E-2,6.545935E-2,-9.745228E-3,-5.2643865E-2,3.438024E-2,-5.949071E-2,-9.684151E-2,1.4525912E-2,6.368018E-2,-3.1877138E-2,4.5680314E-2,-3.4954973E-2],"categories":[],"categories_nodes":[],"categories_segments":[],"categories_sizes":[],"default_left":[0,0,0,0,0,0,0,0,0,0,0,0,0,0,0,0,0,0,0,0,0,0,0,0,0,0,0,0,0,0,0,0,0,0,0,0,0,0,0,0,0,0,0,0,0],"id":7,"left_children":[1,3,5,7,9,11,13,15,-1,17,19,21,-1,-1,-1,23,25,27,29,-1,-1,-1,31,33,35,-1,-1,37,39,41,-1,43,-1,-1,-1,-1,-1,-1,-1,-1,-1,-1,-1,-1,-1],"loss_changes":[5.08089E0,4.068268E0,7.374511E-1,3.504628E0,1.666084E0,6.7321014E-1,5.8108604E-1,1.2816999E0,0E0,3.8162682E0,1.6845841E0,9.39306E-1,0E0,0E0,0E0,1.4593604E0,4.236291E-1,1.5300531E0,1.49739E0,0E0,0E0,0E0,8.797349E-1,1.5916713E0,5.8168054E-2,0E0,0E0,2.7578402E0,1.9485474E0,1.9964292E0,0E0,1.4802918E0,0E0,0E0,0E0,0E0,0E0,0E0,0E0,0E0,0E0,0E0,0E0,0E0,0E0],"parents":[2147483647,0,0,1,1,2,2,3,3,4,4,5,5,6,6,7,7,9,9,10,10,11,11,15,15,16,16,17,17,18,18,22,22,23,23,24,24,27,27,28,28,29,29,31,31],"right_children":[2,4,6,8,10,12,14,16,-1,18,20,22,-1,-1,-1,24,26,28,30,-1,-1,-1,32,34,36,-1,-1,38,40,42,-1,44,-1,-1,-1,-1,-1,-1,-1,-1,-1,-1,-1,-1,-1],"split_conditions":[1E0,3E2,1.1E1,1E0,1.1E1,1E0,1E0,1E0,1.0592099E-1,7E0,1E0,3E2,1.0196727E-1,-2.6010687E-2,4.2210672E-2,1E0,1.4E1,4E2,1E0,-1.04334734E-1,2.858127E-3,8.2426116E-2,9E0,8E0,6E0,-1.0422462E-4,-7.1149714E-2,1.1E1,1E0,1E0,-5.52722E-2,1.4E1,6.8263695E-2,-2.6403088E-2,6.545935E-2,-9.745228E-3,-5.2643865E-2,3.438024E-2,-5.949071E-2,-9.684151E-2,1.4525912E-2,6.368018E-2,-3.1877138E-2,4.5680314E-2,-3.4954973E-2],"split_indices":[1,3,0,7,0,11,7,9,0,0,5,3,0,0,0,12,2,3,8,0,0,0,0,2,0,0,0,2,9,12,0,2,0,0,0,0,0,0,0,0,0,0,0,0,0],"split_type":[0,0,0,0,0,0,0,0,0,0,0,0,0,0,0,0,0,0,0,0,0,0,0,0,0,0,0,0,0,0,0,0,0,0,0,0,0,0,0,0,0,0,0,0,0],"sum_hessian":[6.892894E1,5.170099E1,1.7227951E1,1.551735E1,3.6183636E1,1.4063456E1,3.1644957E0,1.2276499E1,3.2408516E0,2.9854496E1,6.3291416E0,1.184401E1,2.219446E0,2.0454588E0,1.1190369E0,9.394196E0,2.8823032E0,1.9341022E1,1.05134735E1,4.3865504E0,1.9425912E0,2.9042783E0,8.939732E0,7.2636466E0,2.130549E0,1.2327017E0,1.6496016E0,1.0784537E1,8.556485E0,9.439395E0,1.0740787E0,7.2010045E0,1.7387273E0,2.061732E0,5.201915E0,1.0257215E0,1.1048273E0,4.7698803E0,6.014657E0,6.892233E0,1.6642525E0,7.149729E0,2.2896657E0,3.1374578E0,4.0635467E0],"tree_param":{"num_deleted":"0","num_feature":"14","num_nodes":"45","size_leaf_vector":"1"}},{"base_weights":[1.5906405E-2,-1.3288066E-1,4.45029E-1,2.5309175E-1,-2.996825E-1,5.323631E-1,2.6047653E-2,-3.1198761E-3,1.01747625E-1,-3.571132E-1,3.854267E-1,3.812461E-1,9.7596556E-2,-2.479938E-2,4.074457E-2,2.8231424E-1,-3.1223834E-1,-4.216304E-1,2.3306789E-1,1.01001255E-1,-4.7221832E-2,7.795568E-2,1.88902E-1,-8.741974E-2,6.280749E-1,-5.5441003E-2,-5.9466816E-2,-1.5972498E-1,-7.1328753E-1,5.089564E-2,-1.3113103E-2,1.4583359E-2,6.437048E-2,1.5581478E-2,-2.5331438E-2,2.6822755E-2,8.068355E-2,-3.3701185E-2,1.8475909E-2,-6.795039E-2,7.785365E-3,-9.076282E-2,-3.6959603E-2,3.912051E-2,-4.060359E-2],"categories":[],"categories_nodes":[],"categories_segments":[],"categories_sizes":[],"default_left":[0,0,0,0,0,0,0,0,0,0,0,0,0,0,0,0,0,0,0,0,0,0,0,0,0,0,0,0,0,0,0,0,0,0,0,0,0,0,0,0,0,0,0,0,0],"id":8,"left_children":[1,3,5,7,9,11,13,15,-1,17,19,21,-1,-1,-1,23,25,27,29,-1,-1,-1,31,33,35,37,-1,39,41,-1,-1,43,-1,-1,-1,-1,-1,-1,-1,-1,-1,-1,-1,-1,-1],"loss_changes":[4.472289E0,3.4297366E0,6.457052E-1,3.1879654E0,1.5868692E0,6.2438583E-1,5.359081E-1,1.2507427E0,0E0,1.4120302E0,2.2605777E0,8.279177E-1,0E0,0E0,0E0,9.978262E-1,4.6025908E-1,2.2891026E0,4.7308362E-1,0E0,0E0,0E0,7.757641E-1,2.1871701E-1,3.6622882E-2,3.7775847E-1,0E0,2.2588162E0,6.394234E-1,0E0,0E0,1.4550776E0,0E0,0E0,0E0,0E0,0E0,0E0,0E0,0E0,0E0,0E0,0E0,0E0,0E0],"parents":[2147483647,0,0,1,1,2,2,3,3,4,4,5,5,6,6,7,7,9,9,10,10,11,11,15,15,16,16,17,17,18,18,22,22,23,23,24,24,25,25,27,27,28,28,31,31],"right_children":[2,4,6,8,10,12,14,16,-1,18,20,22,-1,-1,-1,24,26,28,30,-1,-1,-1,32,34,36,38,-1,40,42,-1,-1,44,-1,-1,-1,-1,-1,-1,-1,-1,-1,-1,-1,-1,-1],"split_conditions":[1E0,3E2,1.1E1,1E0,1E0,1E0,1.2E1,1.3E1,1.01747625E-1,2.3E1,1E0,3E2,9.7596556E-2,-2.479938E-2,4.074457E-2,1E0,1E0,1.2E1,1E0,1.01001255E-1,-4.7221832E-2,7.795568E-2,9E0,5E0,9E0,1.7E1,-5.9466816E-2,7E0,1E0,5.089564E-2,-1.3113103E-2,1E0,6.437048E-2,1.5581478E-2,-2.5331438E-2,2.6822755E-2,8.068355E-2,-3.3701185E-2,1.8475909E-2,-6.795039E-2,7.785365E-3,-9.076282E-2,-3.6959603E-2,3.912051E-2,-4.060359E-2],"split_indices":[1,3,0,7,4,11,0,2,0,2,6,3,0,0,0,5,9,2,7,0,0,0,0,0,2,2,0,2,7,0,0,7,0,0,0,0,0,0,0,0,0,0,0,0,0],"split_type":[0,0,0,0,0,0,0,0,0,0,0,0,0,0,0,0,0,0,0,0,0,0,0,0,0,0,0,0,0,0,0,0,0,0,0,0,0,0,0,0,0,0,0,0,0],"sum_hessian":[6.811981E1,5.109448E1,1.7025333E1,1.526186E1,3.583262E1,1.3864705E1,3.160628E0,1.2176407E1,3.085453E0,3.3502914E1,2.3297024E0,1.1728665E1,2.1360404E0,2.042693E0,1.1179353E0,6.375814E0,5.8005934E0,3.045882E1,3.0440948E0,1.2452109E0,1.0844914E0,2.8252149E0,8.90345E0,3.442159E0,2.9336548E0,3.6647472E0,2.1358461E0,1.686334E1,1.359548E1,1.5058858E0,1.5382088E0,7.182556E0,1.7208937E0,1.4203719E0,2.0217872E0,1.8035568E0,1.1300979E0,1.5015417E0,2.1632056E0,4.706422E0,1.2156919E1,7.6365595E0,5.9589205E0,3.8263657E0,3.3561907E0],"tree_param":{"num_deleted":"0","num_feature":"14","num_nodes":"45","size_leaf_vector":"1"}},{"base_weights":[1.8703792E-2,-1.2043807E-1,4.2008784E-1,2.3917511E-1,-2.753358E-1,3.033557E-1,8.319103E-2,-1.0169169E-3,9.794993E-2,-3.292909E-1,3.661037E-1,4.5741853E-1,-1.5054204E-1,2.6892617E-1,-2.931704E-1,-7.4001807E-1,-2.1637154E-1,9.613771E-2,-4.499155E-2,8.085297E-2,6.1360353E-1,5.7467647E-2,-7.923805E-2,-8.088711E-2,5.9868973E-1,-5.3108696E-2,-5.5935632E-2,-3.0419505E-1,-1.1481618E-1,-3.2934263E-1,3.75779E-1,2.882762E-2,-2.0250706E-2,7.607012E-1,1.2879103E-2,1.0585702E-2,-2.9737255E-2,2.5166852E-2,7.75696E-2,-3.162029E-2,1.7220644E-2,1.4290102E-2,-8.315945E-2,4.447194E-3,-7.265695E-2,-9.589038E-3,7.153686E-2,3.5125416E-2,1.0773297E-1],"categories":[],"categories_nodes":[],"categories_segments":[],"categories_sizes":[],"default_left":[0,0,0,0,0,0,0,0,0,0,0,0,0,0,0,0,0,0,0,0,0,0,0,0,0,0,0,0,0,0,0,0,0,0,0,0,0,0,0,0,0,0,0,0,0,0,0,0,0],"id":9,"left_children":[1,3,5,7,9,11,-1,13,-1,15,17,19,21,23,25,27,29,-1,-1,31,33,-1,-1,35,37,39,-1,41,-1,43,45,-1,-1,47,-1,-1,-1,-1,-1,-1,-1,-1,-1,-1,-1,-1,-1,-1,-1],"loss_changes":[3.866604E0,2.9354281E0,6.0388494E-1,2.8539877E0,1.3827815E0,1.1493801E0,0E0,1.1129916E0,0E0,1.4245524E0,2.0371299E0,6.4343524E-1,2.6281862E0,8.948035E-1,4.0327656E-1,8.878374E-1,2.0110981E0,0E0,0E0,3.2911932E-1,4.851954E-1,0E0,0E0,2.1102889E-1,4.4081807E-2,3.3114666E-1,0E0,1.2326922E0,0E0,3.6295857E0,8.674213E-1,0E0,0E0,4.0851426E-1,0E0,0E0,0E0,0E0,0E0,0E0,0E0,0E0,0E0,0E0,0E0,0E0,0E0,0E0,0E0],"parents":[2147483647,0,0,1,1,2,2,3,3,4,4,5,5,7,7,9,9,10,10,11,11,12,12,13,13,14,14,15,15,16,16,19,19,20,20,23,23,24,24,25,25,27,27,29,29,30,30,33,33],"right_children":[2,4,6,8,10,12,-1,14,-1,16,18,20,22,24,26,28,30,-1,-1,32,34,-1,-1,36,38,40,-1,42,-1,44,46,-1,-1,48,-1,-1,-1,-1,-1,-1,-1,-1,-1,-1,-1,-1,-1,-1,-1],"split_conditions":[1E0,3E2,2.2E1,1E0,1E0,1.7E1,8.319103E-2,1.3E1,9.794993E-2,3E0,1E0,1.1E1,7E0,1E0,1E0,1E0,1E0,9.613771E-2,-4.499155E-2,1E1,1E0,5.7467647E-2,-7.923805E-2,1E0,9E0,1.7E1,-5.5935632E-2,1.2E1,-1.1481618E-1,4E2,4E2,2.882762E-2,-2.0250706E-2,1E0,1.2879103E-2,1.0585702E-2,-2.9737255E-2,2.5166852E-2,7.75696E-2,-3.162029E-2,1.7220644E-2,1.4290102E-2,-8.315945E-2,4.447194E-3,-7.265695E-2,-9.589038E-3,7.153686E-2,3.5125416E-2,1.0773297E-1],"split_indices":[1,3,2,7,4,2,0,2,0,0,6,2,0,5,9,5,9,0,0,0,12,0,0,12,2,2,0,2,0,3,3,0,0,7,0,0,0,0,0,0,0,0,0,0,0,0,0,0,0],"split_type":[0,0,0,0,0,0,0,0,0,0,0,0,0,0,0,0,0,0,0,0,0,0,0,0,0,0,0,0,0,0,0,0,0,0,0,0,0,0,0,0,0,0,0,0,0,0,0,0,0],"sum_hessian":[6.7326866E1,5.051539E1,1.6811478E1,1.50442705E1,3.547112E1,1.4451718E1,2.3597593E0,1.211295E1,2.9313195E0,3.3167824E1,2.303297E0,1.0783729E1,3.6679902E0,6.33711E0,5.7758403E0,5.9547634E0,2.7213058E1,1.2287862E0,1.0745108E0,3.6063683E0,7.17736E0,1.7712642E0,1.8967259E0,3.441295E0,2.8958151E0,3.667656E0,2.1081846E0,3.72377E0,2.2309933E0,2.322583E1,3.9872293E0,2.0721662E0,1.534202E0,5.070001E0,2.1073592E0,2.1219146E0,1.3193804E0,1.7961882E0,1.0996268E0,1.5058899E0,2.161766E0,2.4098752E0,1.3138947E0,1.2423039E1,1.0802791E1,1.9694338E0,2.0177956E0,3.1307888E0,1.9392122E0],"tree_param":{"num_deleted":"0","num_feature":"14","num_nodes":"49","size_leaf_vector":"1"}},{"base_weights":[1.9965785E-2,-1.1027801E-1,3.95024E-1,2.2582303E-1,-2.5446105E-1,2.8495508E-1,7.846285E-2,1.3532935E-4,9.446273E-2,-1.5123753E-1,-6.5699154E-1,4.2962754E-1,-1.4085038E-1,1.6557334E-1,-4.4374382E-1,-2.643477E-1,7.234316E-2,-9.454673E-2,8.824295E-3,7.9683654E-2,2.3586236E-1,5.4415416E-2,-7.403653E-2,-1.9447897E-2,8.6452775E-2,-8.028791E-3,-6.352037E-2,-3.482768E-1,5.3690154E-2,-2.2960648E-2,3.743709E-1,1.2717687E-2,-4.3202948E-2,-4.350966E-2,2.1942927E-2,4.9823567E-2,-2.0295812E-2],"categories":[],"categories_nodes":[],"categories_segments":[],"categories_sizes":[],"default_left":[0,0,0,0,0,0,0,0,0,0,0,0,0,0,0,0,0,0,0,0,0,0,0,0,0,0,0,0,0,0,0,0,0,0,0,0,0],"id":10,"left_children":[1,3,5,7,9,11,-1,13,-1,15,17,19,21,23,25,27,-1,-1,-1,-1,29,-1,-1,31,-1,-1,-1,33,-1,-1,35,-1,-1,-1,-1,-1,-1],"loss_changes":[3.3443406E0,2.5258288E0,5.326624E-1,2.5664396E0,1.4012411E0,1.0042975E0,0E0,1.0311092E0,0E0,3.1635177E0,1.6037812E0,6.4327216E-1,2.3077197E0,1.3395426E0,2.1429968E-1,2.0252333E0,0E0,0E0,0E0,0E0,6.705544E-1,0E0,0E0,6.0335284E-1,0E0,0E0,0E0,1.3449249E0,0E0,0E0,6.2802994E-1,0E0,0E0,0E0,0E0,0E0,0E0],"parents":[2147483647,0,0,1,1,2,2,3,3,4,4,5,5,7,7,9,9,10,10,11,11,12,12,13,13,14,14,15,15,20,20,23,23,27,27,30,30],"right_children":[2,4,6,8,10,12,-1,14,-1,16,18,20,22,24,26,28,-1,-1,-1,-1,30,-1,-1,32,-1,-1,-1,34,-1,-1,36,-1,-1,-1,-1,-1,-1],"split_conditions":[1E0,3E2,2.2E1,1E0,1.1E1,1.7E1,7.846285E-2,1.9E1,9.446273E-2,1E1,1E0,3E2,7E0,1E0,1E0,1E0,7.234316E-2,-9.454673E-2,8.824295E-3,7.9683654E-2,1E1,5.4415416E-2,-7.403653E-2,1E0,8.6452775E-2,-8.028791E-3,-6.352037E-2,2.3E1,5.3690154E-2,-2.2960648E-2,1E0,1.2717687E-2,-4.3202948E-2,-4.350966E-2,2.1942927E-2,4.9823567E-2,-2.0295812E-2],"split_indices":[1,3,2,7,0,2,0,2,0,0,5,3,0,8,5,4,0,0,0,0,2,0,0,12,0,0,0,2,0,0,6,0,0,0,0,0,0],"split_type":[0,0,0,0,0,0,0,0,0,0,0,0,0,0,0,0,0,0,0,0,0,0,0,0,0,0,0,0,0,0,0,0,0,0,0,0,0],"sum_hessian":[6.657104E1,4.9936066E1,1.6634972E1,1.4821008E1,3.511506E1,1.4320593E1,2.3143792E0,1.2040699E1,2.780309E0,2.9043072E1,6.0719876E0,1.0682209E1,3.6383836E0,9.228233E0,2.8124654E0,2.6335234E1,2.7078373E0,4.183786E0,1.8882017E0,2.6146815E0,8.067528E0,1.7412161E0,1.8971676E0,8.065404E0,1.1628293E0,1.4600811E0,1.3523843E0,2.4349962E1,1.9852717E0,1.699275E0,6.3682528E0,6.461017E0,1.604387E0,2.1322659E1,3.0273046E0,5.356109E0,1.0121434E0],"tree_param":{"num_deleted":"0","num_feature":"14","num_nodes":"37","size_leaf_vector":"1"}},{"base_weights":[2.1843685E-2,-9.8404154E-2,3.68222E-1,4.7859672E-2,-4.0198433E-1,4.475812E-1,2.9387043E-3,2.5197458E-1,-1.9407287E-1,-6.1140716E-1,3.6222848E-1,3.0795267E-1,8.853363E-2,-2.4388142E-2,3.6125153E-2,3.857096E-1,-2.2844188E-1,-2.847526E-1,5.1002104E-2,-8.006681E-1,4.2326678E-2,6.417121E-2,-1.602046E-2,9.347223E-2,6.252674E-1,6.541765E-1,-1.06431685E-1,1.9779751E-2,-5.8371734E-2,-7.133633E-1,-1.5383741E-1,-9.5824504E-1,-4.7332245E-1,7.4646E-2,-8.838706E-2,4.4625238E-1,-4.2704558E-1,3.212792E-1,8.869825E-2,8.381862E-2,-1.0564819E-2,1.8537333E-2,-6.866782E-2,-2.1577759E-2,-8.364269E-2,3.143836E-2,-3.1591225E-2,-1.1229851E-1,-3.2503244E-2,9.579447E-3,-6.371152E-2,9.4170034E-2,-3.4617365E-3,-7.7968547E-3,-7.1258254E-2,4.870231E-2,-1.9451671E-3],"categories":[],"categories_nodes":[],"categories_segments":[],"categories_sizes":[],"default_left":[0,0,0,0,0,0,0,0,0,0,0,0,0,0,0,0,0,0,0,0,0,0,0,0,0,0,0,0,0,0,0,0,0,0,0,0,0,0,0,0,0,0,0,0,0,0,0,0,0,0,0,0,0,0,0,0,0],"id":11,"left_children":[1,3,5,7,9,11,13,15,17,19,21,23,-1,-1,-1,25,27,29,-1,31,33,-1,-1,35,37,39,41,-1,-1,43,45,47,49,-1,-1,51,53,55,-1,-1,-1,-1,-1,-1,-1,-1,-1,-1,-1,-1,-1,-1,-1,-1,-1,-1,-1],"loss_changes":[2.8207068E0,2.2577465E0,5.0419974E-1,1.7731049E0,2.8618789E0,6.026063E-1,4.5238167E-1,1.3328009E0,1.2014236E0,1.6821065E0,7.126355E-1,7.847856E-1,0E0,0E0,0E0,2.1210299E0,8.493942E-1,7.4859E-1,0E0,8.1908226E-2,3.2296984E0,0E0,0E0,1.7640188E0,9.8602414E-2,1.5127225E0,1.2008282E0,0E0,0E0,2.1846175E-2,1.0852938E0,2.6417255E-1,5.5968547E-1,0E0,0E0,1.3658807E0,3.403895E-1,2.2398576E-1,0E0,0E0,0E0,0E0,0E0,0E0,0E0,0E0,0E0,0E0,0E0,0E0,0E0,0E0,0E0,0E0,0E0,0E0,0E0],"parents":[2147483647,0,0,1,1,2,2,3,3,4,4,5,5,6,6,7,7,8,8,9,9,10,10,11,11,15,15,16,16,17,17,19,19,20,20,23,23,24,24,25,25,26,26,29,29,30,30,31,31,32,32,35,35,36,36,37,37],"right_children":[2,4,6,8,10,12,14,16,18,20,22,24,-1,-1,-1,26,28,30,-1,32,34,-1,-1,36,38,40,42,-1,-1,44,46,48,50,-1,-1,52,54,56,-1,-1,-1,-1,-1,-1,-1,-1,-1,-1,-1,-1,-1,-1,-1,-1,-1,-1,-1],"split_conditions":[1E0,4E2,1.1E1,1.3E1,1E0,1E0,1E0,1E0,1E0,1E0,1E0,8E0,8.853363E-2,-2.4388142E-2,3.6125153E-2,1E0,5E0,1.4E1,5.1002104E-2,1.1E1,1E0,6.417121E-2,-1.602046E-2,4E2,2.1E1,1E0,1.1E1,1.9779751E-2,-5.8371734E-2,3E2,1.5E1,1E0,1.3E1,7.4646E-2,-8.838706E-2,1.4E1,1.4E1,1.6E1,8.869825E-2,8.381862E-2,-1.0564819E-2,1.8537333E-2,-6.866782E-2,-2.1577759E-2,-8.364269E-2,3.143836E-2,-3.1591225E-2,-1.1229851E-1,-3.2503244E-2,9.579447E-3,-6.371152E-2,9.4170034E-2,-3.4617365E-3,-7.7968547E-3,-7.1258254E-2,4.870231E-2,-1.9451671E-3],"split_indices":[1,3,0,2,9,11,7,12,4,10,6,0,0,0,0,6,0,2,0,2,6,0,0,3,2,10,0,0,0,3,2,7,2,0,0,2,2,2,0,0,0,0,0,0,0,0,0,0,0,0,0,0,0,0,0,0,0],"split_type":[0,0,0,0,0,0,0,0,0,0,0,0,0,0,0,0,0,0,0,0,0,0,0,0,0,0,0,0,0,0,0,0,0,0,0,0,0,0,0,0,0,0,0,0,0,0,0,0,0,0,0,0,0,0,0,0,0],"sum_hessian":[6.585208E1,4.9413662E1,1.643842E1,3.39156E1,1.5498063E1,1.3319424E1,3.1189961E0,1.8373034E1,1.5542564E1,1.2321472E1,3.1765916E0,1.138992E1,1.9295037E0,2.035929E0,1.0830672E0,1.4526407E1,3.846627E0,1.4296858E1,1.2457062E0,9.380875E0,2.9405968E0,1.9207451E0,1.2558465E0,7.568659E0,3.8212612E0,9.186084E0,5.340324E0,1.9501743E0,1.8964527E0,2.3041437E0,1.1992714E1,5.031503E0,4.349372E0,1.7808105E0,1.1597862E0,4.59624E0,2.9724188E0,2.7984211E0,1.02284E0,7.3121414E0,1.8739418E0,4.0061593E0,1.3341643E0,1.0028168E0,1.3013269E0,2.8421705E0,9.150543E0,3.3789458E0,1.6525575E0,1.0647881E0,3.2845838E0,1.7917961E0,2.804444E0,1.910202E0,1.0622168E0,1.5937934E0,1.2046278E0],"tree_param":{"num_deleted":"0","num_feature":"14","num_nodes":"57","size_leaf_vector":"1"}},{"base_weights":[2.000324E-2,-9.425623E-2,3.498375E-1,4.1375555E-2,-3.7791803E-1,2.4884507E-1,7.115212E-2,1.4543344E-1,-3.6775967E-1,-5.771873E-1,3.3786976E-1,3.8080296E-1,-1.3535623E-1,4.351596E-1,-6.2716454E-2,-6.0520905E-1,1.9647853E-2,-7.5761193E-1,3.412141E-2,-1.9307237E-2,6.187438E-2,7.3909424E-2,1.9828284E-1,5.0940998E-2,-6.910091E-2,6.816326E-1,-2.3568997E-2,-2.893704E-1,3.2306114E-1,-2.3958738E-1,-1.0382012E-1,-9.129696E-1,-4.4183806E-1,6.925031E-2,-8.4627695E-2,-2.2864996E-2,3.2962176E-1,8.446976E-2,-3.1813257E-3,3.108435E-2,-4.7209598E-2,-5.8129307E-2,6.8789157E-3,7.0764445E-2,-4.751729E-2,-9.2692584E-2,3.2844093E-2,-1.0745924E-1,-3.0694677E-2,9.065279E-3,-5.9838254E-2,4.5590382E-2,-1.7825749E-2],"categories":[],"categories_nodes":[],"categories_segments":[],"categories_sizes":[],"default_left":[0,0,0,0,0,0,0,0,0,0,0,0,0,0,0,0,0,0,0,0,0,0,0,0,0,0,0,0,0,0,0,0,0,0,0,0,0,0,0,0,0,0,0,0,0,0,0,0,0,0,0,0,0],"id":12,"left_children":[1,3,5,7,9,11,-1,13,15,17,19,21,23,25,27,29,-1,31,33,-1,-1,-1,35,-1,-1,37,39,41,43,45,-1,47,49,-1,-1,-1,51,-1,-1,-1,-1,-1,-1,-1,-1,-1,-1,-1,-1,-1,-1,-1,-1],"loss_changes":[2.5285668E0,1.9381537E0,4.5302463E-1,1.5310943E0,2.5146453E0,8.1314796E-1,0E0,1.7391677E0,1.0997353E0,1.4696698E0,7.416624E-1,6.0183454E-1,1.9922401E0,1.3721106E0,1.6142673E0,6.057527E-1,0E0,9.4575405E-2,2.869847E0,0E0,0E0,0E0,5.771287E-1,0E0,0E0,9.3840027E-1,9.2047507E-1,1.2406282E0,2.4573324E0,1.954561E0,0E0,2.4466419E-1,4.9479353E-1,0E0,0E0,0E0,5.4643023E-1,0E0,0E0,0E0,0E0,0E0,0E0,0E0,0E0,0E0,0E0,0E0,0E0,0E0,0E0,0E0,0E0],"parents":[2147483647,0,0,1,1,2,2,3,3,4,4,5,5,7,7,8,8,9,9,10,10,11,11,12,12,13,13,14,14,15,15,17,17,18,18,22,22,25,25,26,26,27,27,28,28,29,29,31,31,32,32,36,36],"right_children":[2,4,6,8,10,12,-1,14,16,18,20,22,24,26,28,30,-1,32,34,-1,-1,-1,36,-1,-1,38,40,42,44,46,-1,48,50,-1,-1,-1,52,-1,-1,-1,-1,-1,-1,-1,-1,-1,-1,-1,-1,-1,-1,-1,-1],"split_conditions":[1E0,4E2,2.2E1,1E0,1E0,1.7E1,7.115212E-2,1.1E1,1E0,1E0,5E0,3E2,7E0,1E0,8E0,2.2E1,1.9647853E-2,1.1E1,1E0,-1.9307237E-2,6.187438E-2,7.3909424E-2,1E1,5.0940998E-2,-6.910091E-2,1E0,1E0,1E0,1E0,1E1,-1.0382012E-1,1E0,1.3E1,6.925031E-2,-8.4627695E-2,-2.2864996E-2,1E0,8.446976E-2,-3.1813257E-3,3.108435E-2,-4.7209598E-2,-5.8129307E-2,6.8789157E-3,7.0764445E-2,-4.751729E-2,-9.2692584E-2,3.2844093E-2,-1.0745924E-1,-3.0694677E-2,9.065279E-3,-5.9838254E-2,4.5590382E-2,-1.7825749E-2],"split_indices":[1,3,2,12,9,2,0,2,6,10,0,3,0,6,0,2,0,2,6,0,0,0,2,0,0,10,11,7,9,2,0,7,2,0,0,0,9,0,0,0,0,0,0,0,0,0,0,0,0,0,0,0,0],"split_type":[0,0,0,0,0,0,0,0,0,0,0,0,0,0,0,0,0,0,0,0,0,0,0,0,0,0,0,0,0,0,0,0,0,0,0,0,0,0,0,0,0,0,0,0,0,0,0,0,0,0,0,0,0],"sum_hessian":[6.5219475E1,4.8969833E1,1.6249643E1,3.3707066E1,1.5262765E1,1.4022249E1,2.227394E0,2.738628E1,6.3207865E0,1.2090505E1,3.1722603E0,1.0443996E1,3.5782528E0,1.0993583E1,1.6392698E1,4.3975463E0,1.9232402E0,9.150464E0,2.9400403E0,1.2057004E0,1.96656E0,2.4956305E0,7.9483657E0,1.6948326E0,1.8834201E0,6.835161E0,4.158421E0,1.0483364E1,5.9093337E0,3.226444E0,1.1711025E0,4.865481E0,4.2849836E0,1.8042228E0,1.1358176E0,1.6956239E0,6.252742E0,5.4138126E0,1.4213483E0,2.5581129E0,1.6003083E0,5.432518E0,5.0508456E0,4.064551E0,1.8447831E0,1.1740106E0,2.0524333E0,3.2306879E0,1.634793E0,1.0691503E0,3.2158332E0,5.0895777E0,1.163164E0],"tree_param":{"num_deleted":"0","num_feature":"14","num_nodes":"53","size_leaf_vector":"1"}},{"base_weights":[1.6032469E-2,3.0331147E-1,-1.04372226E-1,6.975381E-2,1.00227594E-1,-2.1504427E-1,2.0878656E-1,1.8283075E-1,-3.2066873E-1,-1.171075E-1,-6.040349E-1,-2.1385148E-2,2.9307297E-1,3.2810676E-1,-2.4780646E-1,-5.190399E-2,7.157585E-3,-3.4322345E-1,2.8198934E-1,-8.744674E-2,8.333822E-3,3.8572747E-1,-1.3384739E-2,-2.8523592E-2,5.201285E-1,1.5432057E-2,-4.9806368E-2,-7.3178485E-2,-5.774768E-1,4.1190487E-1,-5.1716685E-2,8.941246E-2,2.0231353E-1,9.0437256E-2,-3.2971837E-3,3.3098612E-2,-4.9479302E-2,-6.9482766E-2,-2.9261954E-4,6.2351543E-2,-2.3835938E-2,-1.6227224E-3,7.481815E-2],"categories":[],"categories_nodes":[],"categories_segments":[],"categories_sizes":[],"default_left":[0,0,0,0,0,0,0,0,0,0,0,0,0,0,0,0,0,0,0,0,0,0,0,0,0,0,0,0,0,0,0,0,0,0,0,0,0,0,0,0,0,0,0],"id":13,"left_children":[1,3,5,7,-1,9,11,13,15,17,19,-1,21,23,25,-1,-1,27,29,-1,-1,31,-1,-1,33,-1,-1,35,37,39,-1,-1,41,-1,-1,-1,-1,-1,-1,-1,-1,-1,-1],"loss_changes":[2.2993946E0,3.13281E0,1.6718204E0,7.55273E-1,0E0,1.2693902E0,5.1740074E-1,8.866486E-1,3.4115356E-1,2.7447093E0,1.3433769E0,0E0,4.8929733E-1,1.3326956E0,4.6097934E-1,0E0,0E0,1.1711366E0,1.3717926E0,0E0,0E0,6.908746E-1,0E0,0E0,1.7326729E0,0E0,0E0,1.8771803E0,6.8072057E-1,1.54625E0,0E0,0E0,9.859204E-1,0E0,0E0,0E0,0E0,0E0,0E0,0E0,0E0,0E0,0E0],"parents":[2147483647,0,0,1,1,2,2,3,3,5,5,6,6,7,7,8,8,9,9,10,10,12,12,13,13,14,14,17,17,18,18,21,21,24,24,27,27,28,28,29,29,32,32],"right_children":[2,4,6,8,-1,10,12,14,16,18,20,-1,22,24,26,-1,-1,28,30,-1,-1,32,-1,-1,34,-1,-1,36,38,40,-1,-1,42,-1,-1,-1,-1,-1,-1,-1,-1,-1,-1],"split_conditions":[3E2,1E0,1E0,1E0,1.00227594E-1,1.1E1,1E1,1E0,9E0,7E0,1E0,-2.1385148E-2,1E0,8E0,7E0,-5.190399E-2,7.157585E-3,1.1E1,1E0,-8.744674E-2,8.333822E-3,1.2E1,-1.3384739E-2,-2.8523592E-2,1.6E1,1.5432057E-2,-4.9806368E-2,4E2,2.3E1,1E0,-5.1716685E-2,8.941246E-2,1E0,9.0437256E-2,-3.2971837E-3,3.3098612E-2,-4.9479302E-2,-6.9482766E-2,-2.9261954E-4,6.2351543E-2,-2.3835938E-2,-1.6227224E-3,7.481815E-2],"split_indices":[3,7,1,9,0,0,2,12,0,0,5,0,6,2,0,0,0,2,8,0,0,2,0,0,2,0,0,3,2,12,0,0,11,0,0,0,0,0,0,0,0,0,0],"split_type":[0,0,0,0,0,0,0,0,0,0,0,0,0,0,0,0,0,0,0,0,0,0,0,0,0,0,0,0,0,0,0,0,0,0,0,0,0,0,0,0,0,0,0],"sum_hessian":[6.456098E1,1.8618696E1,4.5942287E1,1.4779837E1,3.8388588E0,3.417719E1,1.1765101E1,1.18728485E1,2.9069881E0,2.8342426E1,5.834761E0,1.7005948E0,1.0064507E1,9.055915E0,2.8169343E0,1.7159295E0,1.1910586E0,1.8181404E1,1.0161023E1,3.9920037E0,1.8427576E0,8.3490095E0,1.7154963E0,2.043445E0,7.0124693E0,1.2276427E0,1.5892916E0,9.055129E0,9.126275E0,9.156984E0,1.0040383E0,1.1861825E0,7.1628275E0,3.7631066E0,3.2493627E0,4.7329874E0,4.322141E0,7.4045653E0,1.7217095E0,6.939765E0,2.2172198E0,5.807886E0,1.3549414E0],"tree_param":{"num_deleted":"0","num_feature":"14","num_nodes":"43","size_leaf_vector":"1"}},{"base_weights":[1.5142982E-2,-8.749256E-2,3.114121E-1,-2.9060574E-2,-6.476181E-1,3.8751084E-1,-2.281631E-2,-1.5507571E-1,1.8007474E-1,-1.5232297E-2,-7.519644E-2,2.607232E-1,8.083111E-2,-2.6694326E-2,3.3879247E-2,-2.3497538E-1,4.0452588E-1,3.7010476E-1,-5.58679E-2,5.2088026E-2,5.756371E-1,-5.917852E-2,-5.954133E-1,8.658334E-2,-2.9562226E-2,6.62282E-1,-3.701937E-1,4.6122918E-1,-3.4803373E-1,2.7958775E-1,8.374352E-2,1.055051E-2,-6.929354E-2,-8.2444765E-2,2.2681803E-2,6.0584806E-3,8.054383E-2,4.0765967E-2,-8.765735E-2,8.758213E-2,-7.627826E-3,-9.968131E-2,8.687674E-3,-4.928907E-3,5.0326835E-2],"categories":[],"categories_nodes":[],"categories_segments":[],"categories_sizes":[],"default_left":[0,0,0,0,0,0,0,0,0,0,0,0,0,0,0,0,0,0,0,0,0,0,0,0,0,0,0,0,0,0,0,0,0,0,0,0,0,0,0,0,0,0,0,0,0],"id":14,"left_children":[1,3,5,7,9,11,13,15,17,-1,-1,19,-1,-1,-1,21,23,25,-1,27,29,31,33,-1,-1,35,37,39,41,43,-1,-1,-1,-1,-1,-1,-1,-1,-1,-1,-1,-1,-1,-1,-1],"loss_changes":[1.9956547E0,1.5802946E0,4.380443E-1,1.2215184E0,1.2156701E-1,5.255649E-1,4.5008415E-1,1.3827009E0,2.6623497E0,0E0,0E0,7.638032E-1,0E0,0E0,0E0,1.6016519E0,1.5367714E0,3.3846145E0,0E0,1.5301809E0,1.3130403E-1,2.001278E0,1.7610967E0,0E0,0E0,8.7851286E-1,2.22786E0,1.0844822E0,1.440927E0,2.9801747E-1,0E0,0E0,0E0,0E0,0E0,0E0,0E0,0E0,0E0,0E0,0E0,0E0,0E0,0E0,0E0],"parents":[2147483647,0,0,1,1,2,2,3,3,4,4,5,5,6,6,7,7,8,8,11,11,15,15,16,16,17,17,19,19,20,20,21,21,22,22,25,25,26,26,27,27,28,28,29,29],"right_children":[2,4,6,8,10,12,14,16,18,-1,-1,20,-1,-1,-1,22,24,26,-1,28,30,32,34,-1,-1,36,38,40,42,44,-1,-1,-1,-1,-1,-1,-1,-1,-1,-1,-1,-1,-1,-1,-1],"split_conditions":[1E0,1.2E1,1.1E1,8E0,3E2,1E0,1.2E1,2.3E1,1E0,-1.5232297E-2,-7.519644E-2,8E0,8.083111E-2,-2.6694326E-2,3.3879247E-2,4E2,1E0,1E0,-5.58679E-2,1.4E1,2.1E1,7E0,1E0,8.658334E-2,-2.9562226E-2,7E0,9E0,4E2,4E0,4E2,8.374352E-2,1.055051E-2,-6.929354E-2,-8.2444765E-2,2.2681803E-2,6.0584806E-3,8.054383E-2,4.0765967E-2,-8.765735E-2,8.758213E-2,-7.627826E-3,-9.968131E-2,8.687674E-3,-4.928907E-3,5.0326835E-2],"split_indices":[1,0,0,0,3,11,0,2,12,0,0,0,0,0,0,3,7,6,0,2,2,0,9,0,0,2,0,3,0,3,0,0,0,0,0,0,0,0,0,0,0,0,0,0,0],"split_type":[0,0,0,0,0,0,0,0,0,0,0,0,0,0,0,0,0,0,0,0,0,0,0,0,0,0,0,0,0,0,0,0,0,0,0,0,0,0,0,0,0,0,0,0,0],"sum_hessian":[6.3733795E1,4.7858883E1,1.5874911E1,4.4290413E1,3.5684693E0,1.2800918E1,3.0739937E0,2.7798706E1,1.6491707E1,1.0490029E0,2.5194662E0,1.1081606E1,1.7193121E0,1.9913778E0,1.0826159E0,2.4833143E1,2.9655635E0,1.3514403E1,2.9773026E0,7.3665557E0,3.7150497E0,1.7474478E1,7.358665E0,1.6450466E0,1.320517E0,9.765565E0,3.748839E0,3.566717E0,3.7998388E0,2.7139657E0,1.0010841E0,1.4531856E1,2.942622E0,5.7533593E0,1.605306E0,2.1504135E0,7.6151514E0,1.5550574E0,2.1937814E0,1.6582541E0,1.9084629E0,1.006457E0,2.793382E0,1.4142478E0,1.299718E0],"tree_param":{"num_deleted":"0","num_feature":"14","num_nodes":"45","size_leaf_vector":"1"}},{"base_weights":[1.4276541E-2,2.7787346E-1,-9.569635E-2,5.842916E-2,9.648134E-2,-1.5849397E-2,-4.546477E-1,1.655849E-1,-3.044755E-1,-9.5927894E-2,5.792238E-1,-7.743923E-1,2.8831258E-2,3.0354387E-1,-2.3615472E-1,-5.048235E-2,8.275299E-3,-1.6101946E-1,5.931123E-1,1.00032404E-1,-1.3248068E-2,-3.8224593E-1,-1.0335388E-1,-2.6267454E-2,4.8478115E-1,1.3976305E-2,-4.7069322E-2,-2.5241846E-1,3.514587E-1,6.95709E-3,8.398365E-2,-7.119735E-2,1.8710693E-2,8.472027E-2,-2.161626E-3,-3.6423128E-2,7.1286284E-3,7.075539E-2,-3.401069E-2],"categories":[],"categories_nodes":[],"categories_segments":[],"categories_sizes":[],"default_left":[0,0,0,0,0,0,0,0,0,0,0,0,0,0,0,0,0,0,0,0,0,0,0,0,0,0,0,0,0,0,0,0,0,0,0,0,0,0,0],"id":15,"left_children":[1,3,5,7,-1,9,11,13,15,17,19,21,-1,23,25,-1,-1,27,29,-1,-1,31,-1,-1,33,-1,-1,35,37,-1,-1,-1,-1,-1,-1,-1,-1,-1,-1],"loss_changes":[1.8857292E0,2.8282926E0,1.3111374E0,6.557948E-1,0E0,1.8979838E0,2.2030547E0,7.73703E-1,3.4442133E-1,1.6623937E0,1.549471E0,2.2460628E-1,0E0,1.1398065E0,4.0084344E-1,0E0,0E0,1.6206994E0,3.5865378E-1,0E0,0E0,8.866116E-1,0E0,0E0,1.4544917E0,0E0,0E0,1.0516573E0,1.5626547E0,0E0,0E0,0E0,0E0,0E0,0E0,0E0,0E0,0E0,0E0],"parents":[2147483647,0,0,1,1,2,2,3,3,5,5,6,6,7,7,8,8,9,9,10,10,11,11,13,13,14,14,17,17,18,18,21,21,24,24,27,27,28,28],"right_children":[2,4,6,8,-1,10,12,14,16,18,20,22,-1,24,26,-1,-1,28,30,-1,-1,32,-1,-1,34,-1,-1,36,38,-1,-1,-1,-1,-1,-1,-1,-1,-1,-1],"split_conditions":[3E2,1E0,1.1E1,1E0,9.648134E-2,1E1,1E0,1E0,9E0,1E0,1.2E1,1E0,2.8831258E-2,8E0,7E0,-5.048235E-2,8.275299E-3,2.3E1,1E0,1.00032404E-1,-1.3248068E-2,1E1,-1.0335388E-1,-2.6267454E-2,1.6E1,1.3976305E-2,-4.7069322E-2,1E0,1E0,6.95709E-3,8.398365E-2,-7.119735E-2,1.8710693E-2,8.472027E-2,-2.161626E-3,-3.6423128E-2,7.1286284E-3,7.075539E-2,-3.401069E-2],"split_indices":[3,7,0,9,0,0,5,12,0,4,2,6,0,2,0,0,0,2,7,0,0,2,0,0,2,0,0,1,12,0,0,0,0,0,0,0,0,0,0],"split_type":[0,0,0,0,0,0,0,0,0,0,0,0,0,0,0,0,0,0,0,0,0,0,0,0,0,0,0,0,0,0,0,0,0,0,0,0,0,0,0],"sum_hessian":[6.313359E1,1.8136055E1,4.4997536E1,1.4567497E1,3.5685587E0,3.7663605E1,7.333929E0,1.1666442E1,2.9010553E0,3.3935703E1,3.7279024E0,5.097733E0,2.236196E0,8.866185E0,2.8002565E0,1.7117367E0,1.1893188E0,3.1706774E1,2.2289305E0,2.087337E0,1.6405654E0,3.0131636E0,2.0845692E0,2.0408514E0,6.825334E0,1.2311175E0,1.569139E0,2.733849E1,4.3682847E0,1.1245812E0,1.1043493E0,1.7494906E0,1.2636731E0,3.5859327E0,3.239401E0,2.0226675E1,7.111814E0,2.8682635E0,1.5000213E0],"tree_param":{"num_deleted":"0","num_feature":"14","num_nodes":"39","size_leaf_vector":"1"}},{"base_weights":[1.52817E-2,-3.168967E-2,5.624192E-1,-1.2746187E-1,2.3943414E-1,9.984119E-2,-1.642107E-2,-6.4780384E-2,-7.079968E-1,1.3668972E-1,6.235972E-2,4.267708E-2,-3.186696E-1,-8.569942E-2,-1.49564E-2,2.6202163E-1,-1.946662E-1,2.6934677E-1,-2.1284913E-1,-5.1434183E-1,3.396503E-1,1.0522104E-1,6.386318E-2,4.173102E-2,-6.546387E-2,3.7684843E-2,-9.647063E-3,-3.119199E-2,2.1095563E-2,-6.8647504E-2,1.7608304E-3,-8.376601E-3,6.002251E-2,2.9463356E-2,-5.2060988E-2],"categories":[],"categories_nodes":[],"categories_segments":[],"categories_sizes":[],"default_left":[0,0,0,0,0,0,0,0,0,0,0,0,0,0,0,0,0,0,0,0,0,0,0,0,0,0,0,0,0,0,0,0,0,0,0],"id":16,"left_children":[1,3,5,7,9,-1,-1,11,13,15,-1,17,19,-1,-1,21,23,25,27,29,31,33,-1,-1,-1,-1,-1,-1,-1,-1,-1,-1,-1,-1,-1],"loss_changes":[1.6476349E0,1.5716101E0,1.7692766E0,1.573812E0,5.399662E-1,0E0,0E0,1.1396352E0,2.2434926E-1,6.232033E-1,0E0,1.7880654E0,1.7709754E0,0E0,0E0,5.483164E-1,1.499074E0,6.7643416E-1,6.7902464E-1,9.2321014E-1,4.299983E-1,1.1676694E0,0E0,0E0,0E0,0E0,0E0,0E0,0E0,0E0,0E0,0E0,0E0,0E0,0E0],"parents":[2147483647,0,0,1,1,2,2,3,3,4,4,7,7,8,8,9,9,11,11,12,12,15,15,16,16,17,17,18,18,19,19,20,20,21,21],"right_children":[2,4,6,8,10,-1,-1,12,14,16,-1,18,20,-1,-1,22,24,26,28,30,32,34,-1,-1,-1,-1,-1,-1,-1,-1,-1,-1,-1,-1,-1],"split_conditions":[1E0,1E0,1E0,1.2E1,2.2E1,9.984119E-2,-1.642107E-2,4E2,1E0,1.7E1,6.235972E-2,1.3E1,1E0,-8.569942E-2,-1.49564E-2,1.5E1,7E0,1E0,9E0,1E0,6E0,1.4E1,6.386318E-2,4.173102E-2,-6.546387E-2,3.7684843E-2,-9.647063E-3,-3.119199E-2,2.1095563E-2,-6.8647504E-2,1.7608304E-3,-8.376601E-3,6.002251E-2,2.9463356E-2,-5.2060988E-2],"split_indices":[4,1,6,0,2,0,0,3,7,2,0,2,9,0,0,2,0,12,0,10,0,2,0,0,0,0,0,0,0,0,0,0,0,0,0],"split_type":[0,0,0,0,0,0,0,0,0,0,0,0,0,0,0,0,0,0,0,0,0,0,0,0,0,0,0,0,0,0,0,0,0,0,0],"sum_hessian":[6.2417313E1,5.835008E1,4.0672326E0,4.3510307E1,1.4839772E1,2.3082216E0,1.7590111E0,4.0273487E1,3.2368193E0,1.2778085E1,2.0616872E0,2.888145E1,1.1392036E1,2.1330512E0,1.1037681E0,9.423129E0,3.3549554E0,1.5276254E1,1.3605197E1,8.950414E0,2.4416232E0,7.5564237E0,1.866706E0,1.4794078E0,1.8755476E0,1.178336E1,3.4928942E0,1.1241361E1,2.3638368E0,6.5427604E0,2.4076529E0,1.1886618E0,1.2529613E0,6.2070303E0,1.3493932E0],"tree_param":{"num_deleted":"0","num_feature":"14","num_nodes":"35","size_leaf_vector":"1"}},{"base_weights":[1.4929542E-2,8.6217254E-2,-3.1897E-1,-4.6646368E-2,3.6856794E-1,-4.592971E-2,-8.0980474E-1,8.1573926E-2,-3.0901253E-1,-2.122253E-2,4.4584832E-1,-2.030691E-1,5.357307E-2,-1.0050503E-1,-2.2937223E-2,-3.2109484E-1,2.26078E-1,-4.244323E-1,4.7620174E-2,7.9684275E-1,2.3074366E-1,-3.8772285E-1,5.457411E-2,2.7799407E-1,-8.8545567E-1,7.813927E-1,7.242103E-2,5.2279428E-2,-6.00284E-1,2.045998E-2,1.18713014E-1,3.4841523E-1,-1.6190456E-1,-6.60896E-2,1.4146234E-2,3.7347358E-2,-2.3578705E-2,7.419464E-2,-3.734685E-2,-3.3174787E-2,-1.1208685E-1,1.2535222E-1,-1.8254956E-2,-6.4607635E-3,5.2105702E-2,-2.4414977E-2,2.9459983E-2,-3.3310924E-2,-7.69703E-2,5.94213E-2,-2.1976305E-2,-6.561126E-2,4.139593E-2],"categories":[],"categories_nodes":[],"categories_segments":[],"categories_sizes":[],"default_left":[0,0,0,0,0,0,0,0,0,0,0,0,0,0,0,0,0,0,0,0,0,0,0,0,0,0,0,0,0,0,0,0,0,0,0,0,0,0,0,0,0,0,0,0,0,0,0,0,0,0,0,0,0],"id":17,"left_children":[1,3,5,7,9,11,13,15,17,-1,19,21,-1,-1,-1,23,25,27,-1,29,31,33,35,37,39,41,43,45,47,-1,-1,49,51,-1,-1,-1,-1,-1,-1,-1,-1,-1,-1,-1,-1,-1,-1,-1,-1,-1,-1,-1,-1],"loss_changes":[1.5217093E0,1.9873227E0,1.4714587E0,1.2564508E0,8.5392857E-1,8.668299E-1,2.1865535E-1,1.549161E0,1.3099415E0,0E0,9.677434E-1,3.6629742E-1,0E0,0E0,0E0,2.6516867E0,1.5869405E0,9.691062E-1,0E0,1.0025656E0,5.5840266E-1,7.222234E-1,4.4967893E-1,1.5502458E0,1.3684893E-1,2.0822008E0,1.0288943E0,3.5452724E-1,1.1711311E-1,0E0,0E0,1.3423647E0,1.178895E0,0E0,0E0,0E0,0E0,0E0,0E0,0E0,0E0,0E0,0E0,0E0,0E0,0E0,0E0,0E0,0E0,0E0,0E0,0E0,0E0],"parents":[2147483647,0,0,1,1,2,2,3,3,4,4,5,5,6,6,7,7,8,8,10,10,11,11,15,15,16,16,17,17,19,19,20,20,21,21,22,22,23,23,24,24,25,25,26,26,27,27,28,28,31,31,32,32],"right_children":[2,4,6,8,10,12,14,16,18,-1,20,22,-1,-1,-1,24,26,28,-1,30,32,34,36,38,40,42,44,46,48,-1,-1,50,52,-1,-1,-1,-1,-1,-1,-1,-1,-1,-1,-1,-1,-1,-1,-1,-1,-1,-1,-1,-1],"split_conditions":[1.1E1,8E0,1E0,4E2,7E0,1E0,1.2E1,3E0,2.2E1,-2.122253E-2,1.2E1,1.1E1,5.357307E-2,-1.0050503E-1,-2.2937223E-2,1E1,4E0,3E0,4.7620174E-2,1E1,1E1,1E0,1E0,1E0,1E0,1E0,1E0,1.1E1,1E0,2.045998E-2,1.18713014E-1,1E0,1.4E1,-6.60896E-2,1.4146234E-2,3.7347358E-2,-2.3578705E-2,7.419464E-2,-3.734685E-2,-3.3174787E-2,-1.1208685E-1,1.2535222E-1,-1.8254956E-2,-6.4607635E-3,5.2105702E-2,-2.4414977E-2,2.9459983E-2,-3.3310924E-2,-7.69703E-2,5.94213E-2,-2.1976305E-2,-6.561126E-2,4.139593E-2],"split_indices":[0,0,6,3,2,8,0,0,2,0,2,2,0,0,0,2,0,0,0,0,0,5,5,5,6,5,1,2,7,0,0,12,2,0,0,0,0,0,0,0,0,0,0,0,0,0,0,0,0,0,0,0,0],"split_type":[0,0,0,0,0,0,0,0,0,0,0,0,0,0,0,0,0,0,0,0,0,0,0,0,0,0,0,0,0,0,0,0,0,0,0,0,0,0,0,0,0,0,0,0,0,0,0,0,0,0,0,0,0],"sum_hessian":[6.177413E1,5.1517014E1,1.0257119E1,3.5599854E1,1.591716E1,7.29349E0,2.9636295E0,2.4376137E1,1.1223716E1,1.6641589E0,1.4253E1,6.2546387E0,1.0388516E0,1.6702405E0,1.293389E0,6.1148143E0,1.8261322E1,1.0185939E1,1.0377765E0,4.3881874E0,9.864814E0,3.3493009E0,2.9053376E0,3.2122817E0,2.9025326E0,3.0723991E0,1.5188924E1,2.9342537E0,7.251685E0,2.34857E0,2.0396173E0,7.6768227E0,2.187991E0,2.044834E0,1.3044671E0,1.2482094E0,1.6571283E0,1.7950249E0,1.4172568E0,1.584617E0,1.3179157E0,1.860656E0,1.211743E0,1.2290866E1,2.8980572E0,1.3163818E0,1.6178719E0,3.965017E0,3.286668E0,5.3266544E0,2.3501682E0,1.102483E0,1.0855078E0],"tree_param":{"num_deleted":"0","num_feature":"14","num_nodes":"53","size_leaf_vector":"1"}},{"base_weights":[1.36964135E-2,2.4708197E-1,-8.287785E-2,4.6680484E-2,9.1581665E-2,-1.1040681E-2,-4.079845E-1,1.523478E-1,-3.0524805E-1,-8.2855076E-2,5.1683414E-1,-7.1159464E-1,2.767699E-2,2.743154E-1,-1.9954881E-1,-4.7846634E-2,4.9120486E-3,-1.399099E-1,5.2712935E-1,8.998766E-2,-1.1967939E-2,-3.4672394E-1,-9.579417E-2,-2.5623253E-2,4.498462E-1,1.0718087E-2,-5.0537743E-2,-2.212781E-1,3.1237695E-1,5.266834E-3,7.594126E-2,1.0710755E-2,-7.694028E-2,9.2233226E-2,7.642895E-3,-1.2520611E-2,-6.091721E-2,-1.2617436E-2,8.892308E-2],"categories":[],"categories_nodes":[],"categories_segments":[],"categories_sizes":[],"default_left":[0,0,0,0,0,0,0,0,0,0,0,0,0,0,0,0,0,0,0,0,0,0,0,0,0,0,0,0,0,0,0,0,0,0,0,0,0,0,0],"id":18,"left_children":[1,3,5,7,-1,9,11,13,15,17,19,21,-1,23,25,-1,-1,27,29,-1,-1,31,-1,-1,33,-1,-1,35,37,-1,-1,-1,-1,-1,-1,-1,-1,-1,-1],"loss_changes":[1.4257877E0,2.4365466E0,1.0429544E0,6.150289E-1,0E0,1.4743049E0,1.8786244E0,5.8801544E-1,2.606404E-1,1.2605475E0,1.2438947E0,1.9675612E-1,0E0,1.0137563E0,4.0846765E-1,0E0,0E0,1.245834E0,3.045774E-1,0E0,0E0,8.379768E-1,0E0,0E0,1.2725934E0,0E0,0E0,9.5540917E-1,1.4504318E0,0E0,0E0,0E0,0E0,0E0,0E0,0E0,0E0,0E0,0E0],"parents":[2147483647,0,0,1,1,2,2,3,3,5,5,6,6,7,7,8,8,9,9,10,10,11,11,13,13,14,14,17,17,18,18,21,21,24,24,27,27,28,28],"right_children":[2,4,6,8,-1,10,12,14,16,18,20,22,-1,24,26,-1,-1,28,30,-1,-1,32,-1,-1,34,-1,-1,36,38,-1,-1,-1,-1,-1,-1,-1,-1,-1,-1],"split_conditions":[3E2,1E0,1.1E1,1E0,9.1581665E-2,1E1,1E0,1E0,9E0,1E0,1.2E1,1E0,2.767699E-2,8E0,9E0,-4.7846634E-2,4.9120486E-3,2.3E1,1E0,8.998766E-2,-1.1967939E-2,1E0,-9.579417E-2,-2.5623253E-2,1.3E1,1.0718087E-2,-5.0537743E-2,1E0,4E2,5.266834E-3,7.594126E-2,1.0710755E-2,-7.694028E-2,9.2233226E-2,7.642895E-3,-1.2520611E-2,-6.091721E-2,-1.2617436E-2,8.892308E-2],"split_indices":[3,7,0,9,0,0,5,12,0,4,2,6,0,2,0,0,0,2,7,0,0,13,0,0,2,0,0,8,3,0,0,0,0,0,0,0,0,0,0],"split_type":[0,0,0,0,0,0,0,0,0,0,0,0,0,0,0,0,0,0,0,0,0,0,0,0,0,0,0,0,0,0,0,0,0,0,0,0,0,0,0],"sum_hessian":[6.135004E1,1.7500092E1,4.3849945E1,1.4288133E1,3.211959E0,3.6761013E1,7.088935E0,1.14248905E1,2.8632429E0,3.3100864E1,3.6601458E0,4.8841686E0,2.2047663E0,8.647965E0,2.7769246E0,1.6879598E0,1.1752831E0,3.0974321E1,2.1265454E0,2.0267346E0,1.6334112E0,2.9388406E0,1.9453281E0,2.0355842E0,6.6123815E0,1.7107118E0,1.0662127E0,2.668444E1,4.2898803E0,1.1021136E0,1.0244318E0,1.7772261E0,1.1616144E0,2.2700732E0,4.342308E0,2.2447515E1,4.2369237E0,2.8809323E0,1.4089481E0],"tree_param":{"num_deleted":"0","num_feature":"14","num_nodes":"39","size_leaf_vector":"1"}},{"base_weights":[1.4405072E-2,-7.452246E-2,2.7013925E-1,-2.4623292E-2,-5.635753E-1,1.361142E-2,3.3547705E-1,-3.2867768E-1,4.233595E-2,-6.7571394E-2,-1.1379238E-2,2.018757E-1,-2.899905E-2,5.9396064E-1,1.902696E-1,4.3427702E-2,-5.488178E-1,1.267752E-1,-1.4558579E-1,3.0086705E-2,1.5004989E-3,8.6299E-2,1.6880518E-2,-4.6315603E-2,3.527818E-1,-2.0666896E-1,-8.5473195E-2,3.2202256E-1,-2.4202484E-1,-3.476345E-1,7.659774E-2,4.562988E-1,-1.2855478E-2,1.7261723E-2,-7.025761E-2,1.7980184E-2,8.650321E-2,-5.3119953E-3,-7.169702E-2,-1.1347953E-2,-8.18406E-2,5.652538E-2,-6.8923584E-3],"categories":[],"categories_nodes":[],"categories_segments":[],"categories_sizes":[],"default_left":[0,0,0,0,0,0,0,0,0,0,0,0,0,0,0,0,0,0,0,0,0,0,0,0,0,0,0,0,0,0,0,0,0,0,0,0,0,0,0,0,0,0,0],"id":19,"left_children":[1,3,5,7,9,11,13,15,17,-1,-1,19,-1,21,23,-1,25,27,29,-1,-1,-1,-1,-1,31,33,-1,35,37,39,-1,41,-1,-1,-1,-1,-1,-1,-1,-1,-1,-1,-1],"loss_changes":[1.423807E0,1.1228502E0,2.659794E-1,8.9575154E-1,1.3832939E-1,3.05402E-1,3.6826253E-1,1.5704447E0,5.957743E-1,0E0,0E0,5.5706203E-2,0E0,3.2795727E-1,1.1914741E0,0E0,5.138463E-1,1.9240247E0,2.429485E0,0E0,0E0,0E0,0E0,0E0,4.7326088E-1,9.5507574E-1,0E0,1.1721617E0,8.093555E-1,1.0427428E0,0E0,4.4342613E-1,0E0,0E0,0E0,0E0,0E0,0E0,0E0,0E0,0E0,0E0,0E0],"parents":[2147483647,0,0,1,1,2,2,3,3,4,4,5,5,6,6,7,7,8,8,11,11,13,13,14,14,16,16,17,17,18,18,24,24,25,25,27,27,28,28,29,29,31,31],"right_children":[2,4,6,8,10,12,14,16,18,-1,-1,20,-1,22,24,-1,26,28,30,-1,-1,-1,-1,-1,32,34,-1,36,38,40,-1,42,-1,-1,-1,-1,-1,-1,-1,-1,-1,-1,-1],"split_conditions":[1E0,1.2E1,1.1E1,3E0,1E0,1E0,1.4E1,3E2,1E0,-6.7571394E-2,-1.1379238E-2,1E1,-2.899905E-2,5E0,1.5E1,4.3427702E-2,1E0,1.7E1,2.1E1,3.0086705E-2,1.5004989E-3,8.6299E-2,1.6880518E-2,-4.6315603E-2,1E0,1.2E1,-8.5473195E-2,1.4E1,1E0,9E0,7.659774E-2,1E1,-1.2855478E-2,1.7261723E-2,-7.025761E-2,1.7980184E-2,8.650321E-2,-5.3119953E-3,-7.169702E-2,-1.1347953E-2,-8.18406E-2,5.652538E-2,-6.8923584E-3],"split_indices":[1,0,2,0,7,10,2,3,6,0,0,2,0,0,2,0,5,2,2,0,0,0,0,0,8,2,0,2,12,0,0,0,0,0,0,0,0,0,0,0,0,0,0],"split_type":[0,0,0,0,0,0,0,0,0,0,0,0,0,0,0,0,0,0,0,0,0,0,0,0,0,0,0,0,0,0,0,0,0,0,0,0,0,0,0,0,0,0,0],"sum_hessian":[6.072225E1,4.558083E1,1.514142E1,4.2313805E1,3.267024E0,3.318951E0,1.1822469E1,6.931233E0,3.5382572E1,2.2129788E0,1.054045E0,2.2554224E0,1.0635284E0,3.1409109E0,8.681559E0,1.3342618E0,5.5969715E0,2.4637526E1,1.0745048E1,1.0756098E0,1.1798127E0,1.2929419E0,1.8479688E0,1.3606615E0,7.3208966E0,3.432962E0,2.1640093E0,1.6192076E1,8.44545E0,9.30191E0,1.4431368E0,6.067934E0,1.2529626E0,2.3145976E0,1.1183645E0,1.3886228E1,2.3058486E0,6.837675E0,1.6077746E0,7.040912E0,2.2609985E0,4.962308E0,1.1056263E0],"tree_param":{"num_deleted":"0","num_feature":"14","num_nodes":"43","size_leaf_vector":"1"}},{"base_weights":[1.1896606E-2,-2.9025124E-2,5.026342E-1,-7.985124E-2,3.6708647E-1,9.199526E-2,-1.525306E-2,2.8576432E-2,-2.764565E-1,7.337629E-1,-3.8425174E-2,-3.3868876E-1,1.149608E-1,-4.552787E-1,1.122006E-1,9.19908E-2,1.9761749E-2,2.6924655E-1,-9.379069E-2,4.8558056E-1,-1.3504325E-1,-6.3615245E-1,1.9868787E-1,-2.6520148E-1,7.077819E-2,6.966268E-2,-3.3707973E-2,2.7100375E-2,9.701975E-2,-8.2813114E-2,5.4944973E-3,-8.531276E-2,1.0971579E-2,-7.823284E-3,3.7132017E-2,1.4435545E-2,-5.530351E-2],"categories":[],"categories_nodes":[],"categories_segments":[],"categories_sizes":[],"default_left":[0,0,0,0,0,0,0,0,0,0,0,0,0,0,0,0,0,0,0,0,0,0,0,0,0,0,0,0,0,0,0,0,0,0,0,0,0],"id":20,"left_children":[1,3,5,7,9,-1,-1,11,13,15,-1,17,19,21,23,-1,-1,25,-1,27,29,31,33,35,-1,-1,-1,-1,-1,-1,-1,-1,-1,-1,-1,-1,-1],"loss_changes":[1.2462192E0,1.1880636E0,1.445918E0,1.1128147E0,2.134372E0,0E0,0E0,1.1275699E0,1.3380797E0,3.0347657E-1,0E0,2.7251003E0,2.7087107E0,1.6499414E0,1.6796514E0,0E0,0E0,1.3092248E0,0E0,9.546342E-1,2.3916821E0,1.7649765E0,1.98883E-1,6.4454687E-1,0E0,0E0,0E0,0E0,0E0,0E0,0E0,0E0,0E0,0E0,0E0,0E0,0E0],"parents":[2147483647,0,0,1,1,2,2,3,3,4,4,7,7,8,8,9,9,11,11,12,12,13,13,14,14,17,17,19,19,20,20,21,21,22,22,23,23],"right_children":[2,4,6,8,10,-1,-1,12,14,16,-1,18,20,22,24,-1,-1,26,-1,28,30,32,34,36,-1,-1,-1,-1,-1,-1,-1,-1,-1,-1,-1,-1,-1],"split_conditions":[1E0,2.3E1,1E0,4E2,1E0,9.199526E-2,-1.525306E-2,3E0,1E0,1E0,-3.8425174E-2,1E1,7E0,1E0,9E0,9.19908E-2,1.9761749E-2,1E0,-9.379069E-2,1E0,8E0,1E0,1E0,4E0,7.077819E-2,6.966268E-2,-3.3707973E-2,2.7100375E-2,9.701975E-2,-8.2813114E-2,5.4944973E-3,-8.531276E-2,1.0971579E-2,-7.823284E-3,3.7132017E-2,1.4435545E-2,-5.530351E-2],"split_indices":[4,2,6,3,12,0,0,0,1,7,0,2,0,10,0,0,0,5,0,1,0,9,7,0,0,0,0,0,0,0,0,0,0,0,0,0,0],"split_type":[0,0,0,0,0,0,0,0,0,0,0,0,0,0,0,0,0,0,0,0,0,0,0,0,0,0,0,0,0,0,0,0,0,0,0,0,0],"sum_hessian":[6.033056E1,5.6555363E1,3.775196E0,5.083146E1,5.7239046E0,2.0593219E0,1.7158742E0,3.3313652E1,1.7517805E1,3.8623497E0,1.861555E0,5.7874503E0,2.7526201E1,1.1880254E1,5.637552E0,2.3356512E0,1.5266986E0,3.1461754E0,2.6412747E0,1.0708718E1,1.6817484E1,9.327656E0,2.5525985E0,3.7904043E0,1.8471477E0,1.7580506E0,1.388125E0,8.503003E0,2.205715E0,2.8955383E0,1.3921945E1,7.1142855E0,2.21337E0,1.1902053E0,1.3623933E0,1.7701473E0,2.020257E0],"tree_param":{"num_deleted":"0","num_feature":"14","num_nodes":"37","size_leaf_vector":"1"}},{"base_weights":[1.2802274E-2,7.4837446E-2,-2.7895713E-1,-4.324685E-2,3.240053E-1,-4.2447645E-2,-7.125042E-1,-1.0338136E-1,3.4039015E-1,4.8570204E-1,4.6978496E-2,-1.9311057E-1,5.0756376E-2,-9.11698E-2,-1.6046857E-2,-1.9834453E-2,-5.9340966E-1,-1.0248876E-2,7.5416595E-2,6.5267444E-1,-1.6576761E-2,-5.491519E-2,3.3981597E-1,-3.6558515E-1,4.910661E-2,1.9658469E-1,-3.955086E-1,1.2960741E-2,-9.9876635E-2,9.3592435E-2,4.1733935E-1,-4.430926E-2,7.283068E-2,-6.2417842E-2,1.2884155E-2,3.4888484E-2,-2.1932745E-2,-2.8297175E-2,4.4629883E-2,8.741586E-3,-5.8323868E-2,5.0450306E-2,1.2075324E-2],"categories":[],"categories_nodes":[],"categories_segments":[],"categories_sizes":[],"default_left":[0,0,0,0,0,0,0,0,0,0,0,0,0,0,0,0,0,0,0,0,0,0,0,0,0,0,0,0,0,0,0,0,0,0,0,0,0,0,0,0,0,0,0],"id":21,"left_children":[1,3,5,7,9,11,13,15,17,19,21,23,-1,-1,-1,25,27,-1,-1,29,-1,-1,31,33,35,37,39,-1,-1,-1,41,-1,-1,-1,-1,-1,-1,-1,-1,-1,-1,-1,-1],"loss_changes":[1.1181868E0,1.5082514E0,1.081475E0,8.5043466E-1,7.139108E-1,7.674489E-1,2.6754916E-1,1.2703419E0,9.9750626E-1,1.2262208E0,1.4380604E0,3.13135E-1,0E0,0E0,0E0,2.3371303E0,1.4562169E0,0E0,0E0,1.6825485E-1,0E0,0E0,1.9727468E0,6.232263E-1,3.8394338E-1,2.3177588E0,1.0019602E0,0E0,0E0,0E0,1.04115486E-1,0E0,0E0,0E0,0E0,0E0,0E0,0E0,0E0,0E0,0E0,0E0,0E0],"parents":[2147483647,0,0,1,1,2,2,3,3,4,4,5,5,6,6,7,7,8,8,9,9,10,10,11,11,15,15,16,16,19,19,22,22,23,23,24,24,25,25,26,26,30,30],"right_children":[2,4,6,8,10,12,14,16,18,20,22,24,-1,-1,-1,26,28,-1,-1,30,-1,-1,32,34,36,38,40,-1,-1,-1,42,-1,-1,-1,-1,-1,-1,-1,-1,-1,-1,-1,-1],"split_conditions":[1.1E1,8E0,1E0,2.3E1,1E0,1E0,1.2E1,7E0,7E0,1E0,9E0,1.1E1,5.0756376E-2,-9.11698E-2,-1.6046857E-2,4E2,2E1,-1.0248876E-2,7.5416595E-2,3E2,-1.6576761E-2,-5.491519E-2,8E0,1E0,1E0,3E0,3E0,1.2960741E-2,-9.9876635E-2,9.3592435E-2,1E0,-4.430926E-2,7.283068E-2,-6.2417842E-2,1.2884155E-2,3.4888484E-2,-2.1932745E-2,-2.8297175E-2,4.4629883E-2,8.741586E-3,-5.8323868E-2,5.0450306E-2,1.2075324E-2],"split_indices":[0,0,6,2,5,8,0,0,0,9,0,2,0,0,0,3,2,0,0,3,0,0,2,5,5,0,0,0,0,0,12,0,0,0,0,0,0,0,0,0,0,0,0],"split_type":[0,0,0,0,0,0,0,0,0,0,0,0,0,0,0,0,0,0,0,0,0,0,0,0,0,0,0,0,0,0,0,0,0,0,0,0,0,0,0,0,0,0,0],"sum_hessian":[5.9627075E1,4.9785053E1,9.842022E0,3.433814E1,1.5446914E1,7.078469E0,2.7635531E0,3.0316586E1,4.0215545E0,9.27813E0,6.168784E0,6.065784E0,1.0126845E0,1.5520127E0,1.2115403E0,2.6789595E1,3.52699E0,2.3058403E0,1.7157143E0,7.3838034E0,1.8943262E0,1.7437488E0,4.4250355E0,3.245469E0,2.8203151E0,1.7300058E1,9.489538E0,1.5114125E0,2.0155773E0,1.9998238E0,5.38398E0,1.4209362E0,3.0040991E0,1.9586397E0,1.2868292E0,1.1907837E0,1.6295315E0,5.8782177E0,1.142184E1,2.8058944E0,6.6836433E0,3.619276E0,1.7647036E0],"tree_param":{"num_deleted":"0","num_feature":"14","num_nodes":"43","size_leaf_vector":"1"}},{"base_weights":[1.1030144E-2,-6.711663E-2,2.3692364E-1,-2.2601234E-2,-5.0566614E-1,-1.3112483E-3,2.9912126E-1,-2.8020805E-1,3.3931974E-2,-6.2288553E-2,-6.9194683E-3,1.7053166E-1,-2.6726512E-2,5.5960846E-1,1.5555426E-1,4.435395E-2,-5.019408E-1,1.11115776E-1,-1.3803673E-1,2.5568763E-2,1.1901576E-3,8.364098E-2,1.3442342E-2,-3.9408904E-2,3.2041505E-1,-6.2697786E-1,8.039263E-3,2.775883E-1,-2.05281E-1,-3.1930095E-1,6.736198E-2,5.5817105E-2,1.5488283E-1,-2.7586851E-2,-7.9913236E-2,1.5102875E-2,7.562238E-2,-3.8431723E-2,2.1180471E-2,-1.0207901E-2,-7.602322E-2,-6.575327E-3,4.8675943E-2],"categories":[],"categories_nodes":[],"categories_segments":[],"categories_sizes":[],"default_left":[0,0,0,0,0,0,0,0,0,0,0,0,0,0,0,0,0,0,0,0,0,0,0,0,0,0,0,0,0,0,0,0,0,0,0,0,0,0,0,0,0,0,0],"id":22,"left_children":[1,3,5,7,9,11,13,15,17,-1,-1,19,-1,21,23,-1,25,27,29,-1,-1,-1,-1,-1,31,33,-1,35,37,39,-1,-1,41,-1,-1,-1,-1,-1,-1,-1,-1,-1,-1],"loss_changes":[1.0768087E0,8.754781E-1,2.3255056E-1,6.2540513E-1,1.6870093E-1,2.3932151E-1,3.7774074E-1,1.4613268E0,4.874943E-1,0E0,0E0,3.9991118E-2,0E0,3.6198676E-1,9.778128E-1,0E0,5.147848E-1,1.3793747E0,1.9019718E0,0E0,0E0,0E0,0E0,0E0,2.1976596E-1,1.0377145E-1,0E0,9.0806437E-1,7.706729E-1,8.850796E-1,0E0,0E0,4.692319E-1,0E0,0E0,0E0,0E0,0E0,0E0,0E0,0E0,0E0,0E0],"parents":[2147483647,0,0,1,1,2,2,3,3,4,4,5,5,6,6,7,7,8,8,11,11,13,13,14,14,16,16,17,17,18,18,24,24,25,25,27,27,28,28,29,29,32,32],"right_children":[2,4,6,8,10,12,14,16,18,-1,-1,20,-1,22,24,-1,26,28,30,-1,-1,-1,-1,-1,32,34,-1,36,38,40,-1,-1,42,-1,-1,-1,-1,-1,-1,-1,-1,-1,-1],"split_conditions":[1E0,1.2E1,1.1E1,3E0,1E0,1E0,1.4E1,3E2,1E0,-6.2288553E-2,-6.9194683E-3,1E1,-2.6726512E-2,5E0,4E0,4.435395E-2,1E0,1.7E1,2.1E1,2.5568763E-2,1.1901576E-3,8.364098E-2,1.3442342E-2,-3.9408904E-2,3E2,1E0,8.039263E-3,1.4E1,4E2,9E0,6.736198E-2,5.5817105E-2,1E0,-2.7586851E-2,-7.9913236E-2,1.5102875E-2,7.562238E-2,-3.8431723E-2,2.1180471E-2,-1.0207901E-2,-7.602322E-2,-6.575327E-3,4.8675943E-2],"split_indices":[1,0,2,0,7,10,2,3,6,0,0,2,0,0,0,0,7,2,2,0,0,0,0,0,3,5,0,2,3,0,0,0,5,0,0,0,0,0,0,0,0,0,0],"split_type":[0,0,0,0,0,0,0,0,0,0,0,0,0,0,0,0,0,0,0,0,0,0,0,0,0,0,0,0,0,0,0,0,0,0,0,0,0,0,0,0,0,0,0],"sum_hessian":[5.909836E1,4.4430664E1,1.4667694E1,4.1290924E1,3.13974E0,3.2392707E0,1.1428423E1,6.718767E0,3.457216E1,2.138364E0,1.0013758E0,2.1857603E0,1.0535104E0,3.0310364E0,8.397387E0,1.341079E0,5.377688E0,2.410645E1,1.046571E1,1.0241349E0,1.1616254E0,1.2500622E0,1.7809743E0,1.616746E0,6.7806406E0,4.363997E0,1.0136908E0,1.5875955E1,8.230494E0,9.050991E0,1.4147185E0,1.8095636E0,4.971077E0,2.2919695E0,2.0720277E0,1.3596376E1,2.279578E0,5.813559E0,2.416935E0,6.8887835E0,2.1622076E0,3.467626E0,1.5034509E0],"tree_param":{"num_deleted":"0","num_feature":"14","num_nodes":"43","size_leaf_vector":"1"}},{"base_weights":[1.1386685E-2,-2.66245E-2,4.7321784E-1,-7.237562E-2,3.2967E-1,8.759602E-2,-1.3875164E-2,5.7448115E-2,-1.972348E-1,6.6874576E-1,-3.530135E-2,-1.859787E-2,5.8706194E-1,-3.3162555E-1,7.175173E-2,8.251717E-2,2.0024566E-2,1.6903354E-1,-3.8442656E-1,-8.5945067E-4,8.916387E-2,-4.6902648E-1,-3.8191266E-2,2.9812214E-1,-2.1258706E-1,3.3651188E-2,-2.7251763E-2,-6.2203635E-2,-7.168762E-3,-1.3508434E-2,-6.603412E-2,1.7057156E-2,-5.1957842E-2,5.23083E-2,-2.140031E-2,2.5938665E-2,-6.319276E-2],"categories":[],"categories_nodes":[],"categories_segments":[],"categories_sizes":[],"default_left":[0,0,0,0,0,0,0,0,0,0,0,0,0,0,0,0,0,0,0,0,0,0,0,0,0,0,0,0,0,0,0,0,0,0,0,0,0],"id":23,"left_children":[1,3,5,7,9,-1,-1,11,13,15,-1,17,19,21,23,-1,-1,25,27,-1,-1,29,31,33,35,-1,-1,-1,-1,-1,-1,-1,-1,-1,-1,-1,-1],"loss_changes":[1.0615754E0,9.3927085E-1,1.254639E0,8.313253E-1,1.7570179E0,0E0,0E0,1.0409406E0,9.641088E-1,1.8180823E-1,0E0,1.666573E0,5.958084E-1,6.88606E-1,6.7410415E-1,0E0,0E0,1.2835821E0,5.6590927E-1,0E0,0E0,6.6763926E-1,7.5965804E-1,7.68505E-1,1.1118276E0,0E0,0E0,0E0,0E0,0E0,0E0,0E0,0E0,0E0,0E0,0E0,0E0],"parents":[2147483647,0,0,1,1,2,2,3,3,4,4,7,7,8,8,9,9,11,11,12,12,13,13,14,14,17,17,18,18,21,21,22,22,23,23,24,24],"right_children":[2,4,6,8,10,-1,-1,12,14,16,-1,18,20,22,24,-1,-1,26,28,-1,-1,30,32,34,36,-1,-1,-1,-1,-1,-1,-1,-1,-1,-1,-1,-1],"split_conditions":[1E0,2.3E1,1E0,1.2E1,1E0,8.759602E-2,-1.3875164E-2,1.1E1,1E0,1E0,-3.530135E-2,4E2,1E1,1E0,7E0,8.251717E-2,2.0024566E-2,1E0,8E0,-8.5945067E-4,8.916387E-2,3E2,1E0,1E0,1.7E1,3.3651188E-2,-2.7251763E-2,-6.2203635E-2,-7.168762E-3,-1.3508434E-2,-6.603412E-2,1.7057156E-2,-5.1957842E-2,5.23083E-2,-2.140031E-2,2.5938665E-2,-6.319276E-2],"split_indices":[4,2,6,2,12,0,0,2,1,7,0,3,0,7,0,0,0,12,2,0,0,3,13,12,2,0,0,0,0,0,0,0,0,0,0,0,0],"split_type":[0,0,0,0,0,0,0,0,0,0,0,0,0,0,0,0,0,0,0,0,0,0,0,0,0,0,0,0,0,0,0,0,0,0,0,0,0],"sum_hessian":[5.875455E1,5.515717E1,3.5973814E0,4.95867E1,5.57047E0,1.9094061E0,1.6879752E0,2.4574738E1,2.5011961E1,3.7355232E0,1.8349464E0,2.2332895E1,2.241843E0,1.6523592E1,8.488369E0,2.2297385E0,1.5057849E0,1.5117275E1,7.2156196E0,1.0872688E0,1.1545742E0,1.0846366E1,5.6772265E0,4.698935E0,3.7894342E0,1.1132613E1,3.9846623E0,3.538316E0,3.6773036E0,4.5719895E0,6.2743764E0,4.410287E0,1.2669396E0,3.2499397E0,1.4489951E0,1.9622903E0,1.827144E0],"tree_param":{"num_deleted":"0","num_feature":"14","num_nodes":"37","size_leaf_vector":"1"}},{"base_weights":[1.1139147E-2,-2.4762033E-2,4.5172882E-1,-6.779028E-2,3.0982938E-1,8.456125E-2,-1.3015862E-2,5.3107556E-2,-1.8433347E-1,6.314673E-1,-3.2992642E-2,-1.9663569E-2,5.602576E-1,-3.085202E-1,6.4781256E-2,7.816381E-2,1.8847704E-2,1.5345715E-1,-3.58877E-1,-8.1467576E-4,8.542919E-2,-5.655737E-1,-1.3889314E-1,2.776684E-1,-2.0032437E-1,3.0767947E-2,-2.5148133E-2,-5.8544684E-2,-6.6149146E-3,4.772431E-3,-7.489903E-2,-3.1795718E-2,1.5977144E-2,4.9200874E-2,-2.0140085E-2,2.4347324E-2,-5.9403904E-2],"categories":[],"categories_nodes":[],"categories_segments":[],"categories_sizes":[],"default_left":[0,0,0,0,0,0,0,0,0,0,0,0,0,0,0,0,0,0,0,0,0,0,0,0,0,0,0,0,0,0,0,0,0,0,0,0,0],"id":24,"left_children":[1,3,5,7,9,-1,-1,11,13,15,-1,17,19,21,23,-1,-1,25,27,-1,-1,29,31,33,35,-1,-1,-1,-1,-1,-1,-1,-1,-1,-1,-1,-1],"loss_changes":[9.4630307E-1,8.2164586E-1,1.1428771E0,7.1563184E-1,1.5491965E0,0E0,0E0,9.471309E-1,8.1601936E-1,1.639744E-1,0E0,1.4144416E0,5.4458666E-1,6.7772484E-1,5.853711E-1,0E0,0E0,1.0782516E0,4.999113E-1,0E0,0E0,7.747774E-1,6.8051475E-1,6.7669E-1,9.765917E-1,0E0,0E0,0E0,0E0,0E0,0E0,0E0,0E0,0E0,0E0,0E0,0E0],"parents":[2147483647,0,0,1,1,2,2,3,3,4,4,7,7,8,8,9,9,11,11,12,12,13,13,14,14,17,17,18,18,21,21,22,22,23,23,24,24],"right_children":[2,4,6,8,10,-1,-1,12,14,16,-1,18,20,22,24,-1,-1,26,28,-1,-1,30,32,34,36,-1,-1,-1,-1,-1,-1,-1,-1,-1,-1,-1,-1],"split_conditions":[1E0,2.3E1,1E0,1.2E1,1E0,8.456125E-2,-1.3015862E-2,1.1E1,1E0,1E0,-3.2992642E-2,4E2,1E1,1.4E1,7E0,7.816381E-2,1.8847704E-2,1E0,8E0,-8.1467576E-4,8.542919E-2,3E2,8E0,1E0,1.7E1,3.0767947E-2,-2.5148133E-2,-5.8544684E-2,-6.6149146E-3,4.772431E-3,-7.489903E-2,-3.1795718E-2,1.5977144E-2,4.9200874E-2,-2.0140085E-2,2.4347324E-2,-5.9403904E-2],"split_indices":[4,2,6,2,12,0,0,2,1,7,0,3,0,2,0,0,0,12,2,0,0,3,0,12,2,0,0,0,0,0,0,0,0,0,0,0,0],"split_type":[0,0,0,0,0,0,0,0,0,0,0,0,0,0,0,0,0,0,0,0,0,0,0,0,0,0,0,0,0,0,0,0,0,0,0,0,0],"sum_hessian":[5.8118458E1,5.4612213E1,3.5062444E0,4.90959E1,5.5163083E0,1.8206263E0,1.6856182E0,2.436491E1,2.4730993E1,3.679428E0,1.8368804E0,2.2148098E1,2.2168107E0,1.6344564E1,8.386431E0,2.1769853E0,1.5024428E0,1.5026694E1,7.121404E0,1.0872728E0,1.1295379E0,5.569819E0,1.0774744E1,4.6250224E0,3.761408E0,1.1056114E1,3.9705803E0,3.4506497E0,3.6707544E0,1.4525774E0,4.117242E0,6.6957307E0,4.079014E0,3.1767178E0,1.4483047E0,1.9476287E0,1.8137794E0],"tree_param":{"num_deleted":"0","num_feature":"14","num_nodes":"37","size_leaf_vector":"1"}},{"base_weights":[1.1310105E-2,-2.2642693E-2,4.316269E-1,-8.994539E-2,1.6830985E-1,8.1703834E-2,-1.2209879E-2,-4.42637E-2,-5.358785E-2,8.8420466E-2,4.819691E-2,-3.060896E-1,1.6120123E-2,2.0000894E-1,-1.9680572E-1,4.187833E-2,-5.336947E-1,1.3492152E-1,-1.0574075E-1,-9.615211E-3,3.9791515E-1,3.1987414E-2,-5.5892732E-2,-1.5941856E-2,-9.1159806E-2,2.5975673E-2,-1.1723853E-2,-5.771438E-2,-1.3803449E-3,2.3460269E-2,-4.0459774E-2,7.626381E-2,1.11342305E-2],"categories":[],"categories_nodes":[],"categories_segments":[],"categories_sizes":[],"default_left":[0,0,0,0,0,0,0,0,0,0,0,0,0,0,0,0,0,0,0,0,0,0,0,0,0,0,0,0,0,0,0,0,0],"id":25,"left_children":[1,3,5,7,9,-1,-1,11,-1,13,-1,15,17,19,21,-1,23,25,27,29,31,-1,-1,-1,-1,-1,-1,-1,-1,-1,-1,-1,-1],"loss_changes":[8.4392965E-1,7.224E-1,1.0427413E0,8.184715E-1,3.2549027E-1,0E0,0E0,6.1506164E-1,0E0,4.5098594E-1,0E0,1.4249561E0,4.8201057E-1,4.1005152E-1,9.535455E-1,0E0,7.007308E-1,5.59266E-1,7.075564E-1,6.477977E-1,4.4398856E-1,0E0,0E0,0E0,0E0,0E0,0E0,0E0,0E0,0E0,0E0,0E0,0E0],"parents":[2147483647,0,0,1,1,2,2,3,3,4,4,7,7,9,9,11,11,12,12,13,13,14,14,16,16,17,17,18,18,19,19,20,20],"right_children":[2,4,6,8,10,-1,-1,12,-1,14,-1,16,18,20,22,-1,24,26,28,30,32,-1,-1,-1,-1,-1,-1,-1,-1,-1,-1,-1,-1],"split_conditions":[1E0,1E0,1E0,1.2E1,2.2E1,8.1703834E-2,-1.2209879E-2,3E0,-5.358785E-2,1.7E1,4.819691E-2,3E2,1.3E1,1.3E1,7E0,4.187833E-2,1E0,4E2,1.4E1,1E0,1.4E1,3.1987414E-2,-5.5892732E-2,-1.5941856E-2,-9.1159806E-2,2.5975673E-2,-1.1723853E-2,-5.771438E-2,-1.3803449E-3,2.3460269E-2,-4.0459774E-2,7.626381E-2,1.11342305E-2],"split_indices":[4,1,6,0,2,0,0,0,0,2,0,3,2,2,0,0,5,3,2,10,2,0,0,0,0,0,0,0,0,0,0,0,0],"split_type":[0,0,0,0,0,0,0,0,0,0,0,0,0,0,0,0,0,0,0,0,0,0,0,0,0,0,0,0,0,0,0,0,0],"sum_hessian":[5.7451443E1,5.4032852E1,3.4185936E0,4.0342712E1,1.3690137E1,1.7352637E0,1.68333E0,3.7591114E1,2.751599E0,1.1932751E1,1.7573857E0,6.282211E0,3.1308905E1,8.791888E0,3.1408625E0,1.3004864E0,4.9817243E0,1.5799193E1,1.5509711E1,4.7315745E0,4.0603137E0,1.3423071E0,1.7985553E0,3.2172275E0,1.7644969E0,1.0547423E1,5.251769E0,1.6698865E0,1.3839825E1,3.174699E0,1.5568755E0,1.0556041E0,3.0047095E0],"tree_param":{"num_deleted":"0","num_feature":"14","num_nodes":"33","size_leaf_vector":"1"}},{"base_weights":[1.0280601E-2,6.2390868E-2,-2.3624705E-1,-5.2121382E-2,3.0410564E-1,-1.475301E-2,-6.4669955E-1,-1.0056417E-1,2.5815156E-1,3.770865E-1,-2.5878346E-2,1.2252673E-1,-3.6661338E-2,-8.790218E-2,-6.6843564E-3,-2.8623603E-2,-5.163162E-1,-1.2139736E-2,6.290962E-2,1.2097024E-1,7.712716E-1,2.682616E-1,-2.6986105E-2,1.5474883E-1,-3.511604E-1,1.6487507E-2,-9.173719E-2,-5.0014224E-2,2.5819364E-1,9.626393E-2,1.407713E-2,4.420232E-1,-7.6296823E-3,-2.6728949E-2,3.747371E-2,1.39086945E-2,-5.4212064E-2,3.7319444E-2,-1.8936433E-2,5.7869803E-2,9.628577E-3],"categories":[],"categories_nodes":[],"categories_segments":[],"categories_sizes":[],"default_left":[0,0,0,0,0,0,0,0,0,0,0,0,0,0,0,0,0,0,0,0,0,0,0,0,0,0,0,0,0,0,0,0,0,0,0,0,0,0,0,0,0],"id":26,"left_children":[1,3,5,7,9,11,13,15,17,19,-1,21,-1,-1,-1,23,25,-1,-1,27,29,31,-1,33,35,-1,-1,-1,37,-1,-1,39,-1,-1,-1,-1,-1,-1,-1,-1,-1],"loss_changes":[7.6008433E-1,1.3634433E0,9.298418E-1,5.353306E-1,7.4651945E-1,4.1852394E-1,4.2597508E-1,8.834675E-1,7.601818E-1,1.3595495E0,0E0,4.3341738E-1,0E0,0E0,0E0,1.6311765E0,1.3455054E0,0E0,0E0,9.736965E-1,5.2589154E-1,3.3936772E-1,0E0,1.7426946E0,1.008713E0,0E0,0E0,0E0,5.2234185E-1,0E0,0E0,1.1159575E-1,0E0,0E0,0E0,0E0,0E0,0E0,0E0,0E0,0E0],"parents":[2147483647,0,0,1,1,2,2,3,3,4,4,5,5,6,6,7,7,8,8,9,9,11,11,15,15,16,16,19,19,20,20,21,21,23,23,24,24,28,28,31,31],"right_children":[2,4,6,8,10,12,14,16,18,20,-1,22,-1,-1,-1,24,26,-1,-1,28,30,32,-1,34,36,-1,-1,-1,38,-1,-1,40,-1,-1,-1,-1,-1,-1,-1,-1,-1],"split_conditions":[1.1E1,8E0,1E0,2.3E1,1E0,1E0,1.2E1,7E0,7E0,1E0,-2.5878346E-2,1E0,-3.6661338E-2,-8.790218E-2,-6.6843564E-3,4E2,2E1,-1.2139736E-2,6.290962E-2,7E0,1E0,4E2,-2.6986105E-2,3E0,3E0,1.6487507E-2,-9.173719E-2,-5.0014224E-2,2.2E1,9.626393E-2,1.407713E-2,1.3E1,-7.6296823E-3,-2.6728949E-2,3.747371E-2,1.39086945E-2,-5.4212064E-2,3.7319444E-2,-1.8936433E-2,5.7869803E-2,9.628577E-3],"split_indices":[0,0,6,2,8,13,0,0,0,7,0,12,0,0,0,3,2,0,0,2,12,3,0,0,0,0,0,0,2,0,0,2,0,0,0,0,0,0,0,0,0],"split_type":[0,0,0,0,0,0,0,0,0,0,0,0,0,0,0,0,0,0,0,0,0,0,0,0,0,0,0,0,0,0,0,0,0,0,0,0,0,0,0,0,0],"sum_hessian":[5.701873E1,4.768594E1,9.332788E0,3.288911E1,1.4796831E1,6.7345443E0,2.5982442E0,2.9032207E1,3.8569024E0,1.3390754E1,1.4060779E0,5.3133097E0,1.4212345E0,1.4866709E0,1.1115735E0,2.5660786E1,3.371423E0,2.2388527E0,1.6180496E0,8.909086E0,4.481667E0,4.105019E0,1.2082903E0,1.6691404E1,8.969381E0,1.4676031E0,1.9038199E0,1.1335564E0,7.7755303E0,3.034007E0,1.4476599E0,2.540813E0,1.5642064E0,5.645579E0,1.1045825E1,2.5905E0,6.378881E0,6.3182096E0,1.4573206E0,1.3380538E0,1.202759E0],"tree_param":{"num_deleted":"0","num_feature":"14","num_nodes":"41","size_leaf_vector":"1"}},{"base_weights":[7.567552E-3,-5.916553E-2,2.0126384E-1,-9.164965E-2,3.0746573E-1,1.3241513E-1,4.6317022E-2,-4.9029898E-2,-5.101625E-2,7.1705796E-2,-1.7295344E-2,-4.6155084E-2,3.0992636E-1,6.735361E-2,-1.7133115E-1,3.4759873E-1,-4.0044013E-1,-5.458707E-2,7.560994E-2,-1.767629E-1,1.7037281E-1,-3.596393E-1,7.247547E-4,6.934702E-2,-4.5605195E-3,-7.333588E-2,-5.788517E-3,-4.9300447E-1,5.3601123E-2,-3.2469552E-2,2.2753855E-2,-8.559748E-4,6.398367E-2,-5.3651847E-2,3.6080956E-2,-1.7434368E-2,7.453945E-2,2.7916903E-2,-1.0128713E-1],"categories":[],"categories_nodes":[],"categories_segments":[],"categories_sizes":[],"default_left":[0,0,0,0,0,0,0,0,0,0,0,0,0,0,0,0,0,0,0,0,0,0,0,0,0,0,0,0,0,0,0,0,0,0,0,0,0,0,0],"id":27,"left_children":[1,3,5,7,9,11,-1,13,-1,-1,-1,15,17,19,21,23,25,27,-1,29,31,33,35,-1,-1,-1,-1,37,-1,-1,-1,-1,-1,-1,-1,-1,-1,-1,-1],"loss_changes":[7.563312E-1,5.4752326E-1,2.0886934E-1,7.032329E-1,8.675958E-1,4.348057E-1,0E0,5.5471563E-1,0E0,0E0,0E0,1.1831539E0,1.1443076E0,5.3991234E-1,6.122733E-1,5.864514E-1,4.5978028E-1,1.4722515E0,0E0,4.6304214E-1,1.2457392E0,1.3431273E0,1.5468898E0,0E0,0E0,0E0,0E0,1.566751E0,0E0,0E0,0E0,0E0,0E0,0E0,0E0,0E0,0E0,0E0,0E0],"parents":[2147483647,0,0,1,1,2,2,3,3,4,4,5,5,7,7,11,11,12,12,13,13,14,14,15,15,16,16,17,17,19,19,20,20,21,21,22,22,27,27],"right_children":[2,4,6,8,10,12,-1,14,-1,-1,-1,16,18,20,22,24,26,28,-1,30,32,34,36,-1,-1,-1,-1,38,-1,-1,-1,-1,-1,-1,-1,-1,-1,-1,-1],"split_conditions":[1E0,1E0,1E0,1.2E1,1E0,8E0,4.6317022E-2,1.2E1,-5.101625E-2,7.1705796E-2,-1.7295344E-2,1.4E1,4E2,7E0,1.8E1,4E2,5E0,1E0,7.560994E-2,1E0,1E1,1E0,1E0,6.934702E-2,-4.5605195E-3,-7.333588E-2,-5.788517E-3,3E2,5.3601123E-2,-3.2469552E-2,2.2753855E-2,-8.559748E-4,6.398367E-2,-5.3651847E-2,3.6080956E-2,-1.7434368E-2,7.453945E-2,2.7916903E-2,-1.0128713E-1],"split_indices":[1,4,11,0,6,0,0,2,0,0,0,2,3,2,2,3,0,12,0,7,0,8,10,0,0,0,0,3,0,0,0,0,0,0,0,0,0,0,0],"split_type":[0,0,0,0,0,0,0,0,0,0,0,0,0,0,0,0,0,0,0,0,0,0,0,0,0,0,0,0,0,0,0,0,0,0,0,0,0,0,0],"sum_hessian":[5.6591385E1,4.260684E1,1.3984547E1,3.982803E1,2.778806E0,1.2265762E1,1.718784E0,3.7160862E1,2.6671689E0,1.2340884E0,1.5447174E0,6.483536E0,5.7822266E0,1.9271309E1,1.7889555E1,3.079661E0,3.4038746E0,3.6653621E0,2.1168647E0,5.5066967E0,1.3764611E1,8.020834E0,9.86872E0,1.232173E0,1.8474879E0,1.1476545E0,2.2562203E0,2.1985579E0,1.4668044E0,4.1757135E0,1.330983E0,1.0676944E1,3.0876682E0,6.644762E0,1.3760719E0,8.610346E0,1.2583747E0,1.070907E0,1.1276507E0],"tree_param":{"num_deleted":"0","num_feature":"14","num_nodes":"39","size_leaf_vector":"1"}},{"base_weights":[1.0124734E-2,-2.0370554E-2,3.9781794E-1,-8.204564E-2,1.556821E-1,7.634235E-2,-1.051019E-2,-4.195998E-2,-4.8148807E-2,8.3321795E-2,4.3889727E-2,5.7213232E-2,-1.62267E-1,1.8677413E-1,-1.8013625E-1,1.6589716E-1,-1.7982486E-1,-6.510328E-1,-5.0020784E-2,-1.4457864E-2,3.7799335E-1,3.101401E-2,-5.274723E-2,8.275432E-3,5.193928E-2,-4.338756E-2,2.751638E-2,-8.197604E-2,-1.8737758E-2,-1.5456758E-2,3.4811195E-2,2.166967E-2,-3.7985984E-2,7.345542E-2,9.935827E-3],"categories":[],"categories_nodes":[],"categories_segments":[],"categories_sizes":[],"default_left":[0,0,0,0,0,0,0,0,0,0,0,0,0,0,0,0,0,0,0,0,0,0,0,0,0,0,0,0,0,0,0,0,0,0,0],"id":28,"left_children":[1,3,5,7,9,-1,-1,11,-1,13,-1,15,17,19,21,23,25,27,29,31,33,-1,-1,-1,-1,-1,-1,-1,-1,-1,-1,-1,-1,-1,-1],"loss_changes":[6.8362886E-1,5.982626E-1,8.5530674E-1,6.296828E-1,2.5719383E-1,0E0,0E0,4.6244952E-1,0E0,3.78471E-1,0E0,5.852321E-1,9.232856E-1,3.7392208E-1,8.5773873E-1,4.0673766E-1,9.5824987E-1,9.4442606E-2,6.886526E-1,5.577408E-1,4.1847306E-1,0E0,0E0,0E0,0E0,0E0,0E0,0E0,0E0,0E0,0E0,0E0,0E0,0E0,0E0],"parents":[2147483647,0,0,1,1,2,2,3,3,4,4,7,7,9,9,11,11,12,12,13,13,14,14,15,15,16,16,17,17,18,18,19,19,20,20],"right_children":[2,4,6,8,10,-1,-1,12,-1,14,-1,16,18,20,22,24,26,28,30,32,34,-1,-1,-1,-1,-1,-1,-1,-1,-1,-1,-1,-1,-1,-1],"split_conditions":[1E0,1E0,1E0,1.2E1,2.2E1,7.634235E-2,-1.051019E-2,1.3E1,-4.8148807E-2,1.7E1,4.3889727E-2,4E2,1.4E1,1.3E1,7E0,1E0,1E0,5E0,1E0,1E0,1.4E1,3.101401E-2,-5.274723E-2,8.275432E-3,5.193928E-2,-4.338756E-2,2.751638E-2,-8.197604E-2,-1.8737758E-2,-1.5456758E-2,3.4811195E-2,2.166967E-2,-3.7985984E-2,7.345542E-2,9.935827E-3],"split_indices":[4,1,6,0,2,0,0,2,0,2,0,3,2,2,0,13,7,0,10,10,2,0,0,0,0,0,0,0,0,0,0,0,0,0,0],"split_type":[0,0,0,0,0,0,0,0,0,0,0,0,0,0,0,0,0,0,0,0,0,0,0,0,0,0,0,0,0,0,0,0,0,0,0],"sum_hessian":[5.613741E1,5.2922104E1,3.2153056E0,3.9587654E1,1.3334447E1,1.5618855E0,1.65342E0,3.6981464E1,2.6061928E0,1.1651688E1,1.6827589E0,2.0558678E1,1.6422785E1,8.575431E0,3.0762568E0,1.4301463E1,6.257215E0,2.1706867E0,1.4252098E1,4.6287246E0,3.9467068E0,1.3200507E0,1.756206E0,1.2577349E1,1.7241138E0,4.045015E0,2.2122002E0,1.028404E0,1.1422827E0,1.1772494E1,2.4796042E0,3.0844526E0,1.5442718E0,1.013501E0,2.9332056E0],"tree_param":{"num_deleted":"0","num_feature":"14","num_nodes":"35","size_leaf_vector":"1"}},{"base_weights":[1.0419681E-2,5.8266357E-2,-2.172916E-1,-4.672126E-2,2.8014478E-1,-8.576902E-3,-6.0678196E-1,-9.215353E-2,2.4178419E-1,3.47885E-1,-2.3889596E-2,1.15155146E-1,-3.3098172E-2,-8.422532E-2,-3.713887E-3,-2.3828503E-2,-4.866418E-1,-1.1808059E-2,5.9843E-2,1.1558564E-1,7.077144E-1,2.725333E-1,-2.9308463E-2,1.4195938E-1,-3.1862745E-1,1.5614311E-2,-8.730379E-2,-4.5549702E-2,2.4035348E-1,9.015819E-2,1.0644341E-2,4.3816963E-1,-6.788791E-3,-2.4316931E-2,3.4307897E-2,1.3758242E-2,-4.9793255E-2,3.5159823E-2,-1.8857861E-2,5.6444068E-2,1.0175516E-2],"categories":[],"categories_nodes":[],"categories_segments":[],"categories_sizes":[],"default_left":[0,0,0,0,0,0,0,0,0,0,0,0,0,0,0,0,0,0,0,0,0,0,0,0,0,0,0,0,0,0,0,0,0,0,0,0,0,0,0,0,0],"id":29,"left_children":[1,3,5,7,9,11,13,15,17,19,-1,21,-1,-1,-1,23,25,-1,-1,27,29,31,-1,33,35,-1,-1,-1,37,-1,-1,39,-1,-1,-1,-1,-1,-1,-1,-1,-1],"loss_changes":[6.3067055E-1,1.1233599E0,8.1264377E-1,4.5758715E-1,6.263943E-1,3.3988637E-1,4.3762934E-1,7.8127384E-1,6.859787E-1,1.094714E0,0E0,4.787674E-1,0E0,0E0,0E0,1.322071E0,1.202131E0,0E0,0E0,8.0408794E-1,5.2494407E-1,3.116376E-1,0E0,1.4321955E0,8.629484E-1,0E0,0E0,0E0,4.7929722E-1,0E0,0E0,9.112185E-2,0E0,0E0,0E0,0E0,0E0,0E0,0E0,0E0,0E0],"parents":[2147483647,0,0,1,1,2,2,3,3,4,4,5,5,6,6,7,7,8,8,9,9,11,11,15,15,16,16,19,19,20,20,21,21,23,23,24,24,28,28,31,31],"right_children":[2,4,6,8,10,12,14,16,18,20,-1,22,-1,-1,-1,24,26,-1,-1,28,30,32,-1,34,36,-1,-1,-1,38,-1,-1,40,-1,-1,-1,-1,-1,-1,-1,-1,-1],"split_conditions":[1.1E1,8E0,1E0,2.3E1,1E0,1E0,1.2E1,7E0,7E0,1E0,-2.3889596E-2,1E0,-3.3098172E-2,-8.422532E-2,-3.713887E-3,4E2,2E1,-1.1808059E-2,5.9843E-2,7E0,1E0,4E2,-2.9308463E-2,3E0,3E0,1.5614311E-2,-8.730379E-2,-4.5549702E-2,2.2E1,9.015819E-2,1.0644341E-2,1.3E1,-6.788791E-3,-2.4316931E-2,3.4307897E-2,1.3758242E-2,-4.9793255E-2,3.5159823E-2,-1.8857861E-2,5.6444068E-2,1.0175516E-2],"split_indices":[0,0,6,2,8,13,0,0,0,7,0,12,0,0,0,3,2,0,0,2,12,3,0,0,0,0,0,0,2,0,0,2,0,0,0,0,0,0,0,0,0],"split_type":[0,0,0,0,0,0,0,0,0,0,0,0,0,0,0,0,0,0,0,0,0,0,0,0,0,0,0,0,0,0,0,0,0,0,0,0,0,0,0,0,0],"sum_hessian":[5.572298E1,4.6662403E1,9.060578E0,3.2210556E1,1.4451844E1,6.5647645E0,2.495814E0,2.8416298E1,3.7942603E0,1.3075154E1,1.3766899E0,5.2086287E0,1.3561357E0,1.4272668E0,1.0685471E0,2.5125063E1,3.2912352E0,2.2215612E0,1.572699E0,8.748502E0,4.3266525E0,3.9993002E0,1.2093284E0,1.641315E1,8.711911E0,1.4593871E0,1.8318481E0,1.093342E0,7.65516E0,2.8940613E0,1.4325911E0,2.4971433E0,1.502157E0,5.559004E0,1.0854147E1,2.523643E0,6.188268E0,6.2218103E0,1.4333497E0,1.3228183E0,1.174325E0],"tree_param":{"num_deleted":"0","num_feature":"14","num_nodes":"41","size_leaf_vector":"1"}},{"base_weights":[7.7799065E-3,-5.3671118E-2,1.8721417E-1,-8.262642E-2,2.8044692E-1,2.4487808E-1,-4.0568173E-2,-4.4950806E-2,-4.5972455E-2,6.660107E-2,-1.5392082E-2,1.3365838E-1,6.584817E-2,-1.5053483E-2,9.164642E-3,5.1382594E-2,-1.6085538E-1,-4.6113808E-2,4.137953E-1,1.4827894E-1,-1.6319752E-1,-6.373237E-2,-5.142997E-2,3.3328423E-1,-3.829965E-1,8.204992E-3,5.9141316E-2,6.978921E-3,4.8696786E-2,-4.8567716E-2,1.6040383E-2,-1.4722315E-2,3.1167561E-2,6.5694585E-2,-2.9846677E-3,-8.431288E-2,7.2861434E-4],"categories":[],"categories_nodes":[],"categories_segments":[],"categories_sizes":[],"default_left":[0,0,0,0,0,0,0,0,0,0,0,0,0,0,0,0,0,0,0,0,0,0,0,0,0,0,0,0,0,0,0,0,0,0,0,0,0],"id":30,"left_children":[1,3,5,7,9,11,13,15,-1,-1,-1,17,-1,-1,-1,19,21,23,25,27,29,-1,31,33,35,-1,-1,-1,-1,-1,-1,-1,-1,-1,-1,-1,-1],"loss_changes":[6.3089645E-1,4.3645594E-1,2.01527E-1,5.488314E-1,7.1119463E-1,4.539734E-1,6.911136E-2,4.2754918E-1,0E0,0E0,0E0,5.498796E-1,0E0,0E0,0E0,4.663452E-1,8.685074E-1,1.0632004E0,2.0014328E-1,3.693895E-1,8.179245E-1,0E0,5.7270396E-1,4.8706952E-1,7.8595763E-1,0E0,0E0,0E0,0E0,0E0,0E0,0E0,0E0,0E0,0E0,0E0,0E0],"parents":[2147483647,0,0,1,1,2,2,3,3,4,4,5,5,6,6,7,7,11,11,15,15,16,16,17,17,18,18,19,19,20,20,22,22,23,23,24,24],"right_children":[2,4,6,8,10,12,14,16,-1,-1,-1,18,-1,-1,-1,20,22,24,26,28,30,-1,32,34,36,-1,-1,-1,-1,-1,-1,-1,-1,-1,-1,-1,-1],"split_conditions":[1E0,1E0,1.1E1,1.2E1,1E0,1E0,1.1E1,1.3E1,-4.5972455E-2,6.660107E-2,-1.5392082E-2,8E0,6.584817E-2,-1.5053483E-2,9.164642E-3,4E2,1.4E1,1.4E1,1E0,1E0,8E0,-6.373237E-2,1E0,4E2,4E0,8.204992E-3,5.9141316E-2,6.978921E-3,4.8696786E-2,-4.8567716E-2,1.6040383E-2,-1.4722315E-2,3.1167561E-2,6.5694585E-2,-2.9846677E-3,-8.431288E-2,7.2861434E-4],"split_indices":[1,4,0,0,6,11,2,2,0,0,0,0,0,0,0,3,2,2,12,13,2,0,10,3,0,0,0,0,0,0,0,0,0,0,0,0,0],"split_type":[0,0,0,0,0,0,0,0,0,0,0,0,0,0,0,0,0,0,0,0,0,0,0,0,0,0,0,0,0,0,0,0,0,0,0,0,0],"sum_hessian":[5.5305534E1,4.1718906E1,1.3586627E1,3.9084476E1,2.6344316E0,1.0782058E1,2.8045697E0,3.655181E1,2.5326643E0,1.1131041E0,1.5213275E0,9.539896E0,1.2421614E0,1.4554586E0,1.3491111E0,2.0265196E1,1.6286615E1,6.3197274E0,3.2201688E0,1.4173813E1,6.091382E0,2.1407828E0,1.4145832E1,2.9773316E0,3.3423958E0,1.63268E0,1.5874887E0,1.2486238E1,1.6875757E0,2.800119E0,3.291263E0,1.1663385E1,2.482447E0,1.1464107E0,1.8309209E0,1.0014323E0,2.3409634E0],"tree_param":{"num_deleted":"0","num_feature":"14","num_nodes":"37","size_leaf_vector":"1"}},{"base_weights":[8.653242E-3,-1.8918596E-2,3.6826912E-1,-5.4500896E-2,2.5410286E-1,7.161524E-2,-9.150676E-3,9.395959E-2,-1.1439657E-1,5.6452364E-1,-3.4016237E-2,-5.746511E-2,7.393318E-2,5.854049E-3,-2.2849104E-1,7.0746206E-2,1.4462548E-2,-1.483334E-1,2.5207197E-2,-3.923845E-1,1.354922E-1,-1.3780835E-1,-6.679603E-2,-2.613897E-2,3.3225995E-2,1.54865235E-2,-7.372047E-2,-1.7469423E-3,3.9402466E-2,-5.1573496E-2,-4.0726373E-3],"categories":[],"categories_nodes":[],"categories_segments":[],"categories_sizes":[],"default_left":[0,0,0,0,0,0,0,0,0,0,0,0,0,0,0,0,0,0,0,0,0,0,0,0,0,0,0,0,0,0,0],"id":31,"left_children":[1,3,5,7,9,-1,-1,11,13,15,-1,17,-1,19,21,-1,-1,23,-1,25,27,29,-1,-1,-1,-1,-1,-1,-1,-1,-1],"loss_changes":[5.6162137E-1,5.278266E-1,7.104978E-1,4.3428326E-1,1.349932E0,0E0,0E0,1.4342105E0,4.7315258E-1,1.6771662E-1,0E0,3.87929E-1,0E0,9.678822E-1,6.121861E-1,0E0,0E0,6.445297E-1,0E0,9.8368967E-1,5.648688E-1,5.626753E-1,0E0,0E0,0E0,0E0,0E0,0E0,0E0,0E0,0E0],"parents":[2147483647,0,0,1,1,2,2,3,3,4,4,7,7,8,8,9,9,11,11,13,13,14,14,17,17,19,19,20,20,21,21],"right_children":[2,4,6,8,10,-1,-1,12,14,16,-1,18,-1,20,22,-1,-1,24,-1,26,28,30,-1,-1,-1,-1,-1,-1,-1,-1,-1],"split_conditions":[1E0,2.3E1,1E0,3E2,1E0,7.161524E-2,-9.150676E-3,1E0,1.2E1,1E0,-3.4016237E-2,1.8E1,7.393318E-2,7E0,1E0,7.0746206E-2,1.4462548E-2,1E0,2.5207197E-2,6E0,1E0,1.3E1,-6.679603E-2,-2.613897E-2,3.3225995E-2,1.54865235E-2,-7.372047E-2,-1.7469423E-3,3.9402466E-2,-5.1573496E-2,-4.0726373E-3],"split_indices":[4,2,6,3,12,0,0,7,2,9,0,2,0,2,13,0,0,8,0,2,5,2,0,0,0,0,0,0,0,0,0],"split_type":[0,0,0,0,0,0,0,0,0,0,0,0,0,0,0,0,0,0,0,0,0,0,0,0,0,0,0,0,0,0,0],"sum_hessian":[5.493939E1,5.190705E1,3.0323343E0,4.6630215E1,5.276837E0,1.4087846E0,1.6235497E0,1.3241194E1,3.3389023E1,3.499095E0,1.7777418E0,1.1462652E1,1.7785422E0,1.6717836E1,1.6671185E1,2.0995433E0,1.3995519E0,9.26391E0,2.1987414E0,3.6078942E0,1.3109943E1,1.49084635E1,1.7627211E0,7.868913E0,1.3949975E0,1.6075306E0,2.0003636E0,8.822506E0,4.2874374E0,2.1656246E0,1.2742839E1],"tree_param":{"num_deleted":"0","num_feature":"14","num_nodes":"31","size_leaf_vector":"1"}},{"base_weights":[9.28281E-3,-4.8166487E-2,1.7713664E-1,-9.507814E-2,1.3466196E-1,2.3328744E-1,-4.2124573E-2,-3.88261E-2,-6.993392E-2,-3.3279613E-2,6.578529E-2,1.2785727E-1,6.3332796E-2,-1.3876555E-2,7.768687E-3,-1.1432531E-1,2.5533345E-1,-3.1232217E-1,2.9305762E-1,-4.0979743E-2,3.905936E-1,-1.6258936E-1,3.4617078E-2,-2.2710991E-1,7.929089E-2,1.2128009E-2,-7.406446E-2,-1.0382631E-2,6.5692015E-2,3.2309592E-1,-3.6148295E-1,7.0298286E-3,5.6376036E-2,6.342105E-3,-2.579236E-2,2.4912259E-2,-5.8439583E-2,5.398199E-2,-1.2263914E-2,-8.0034606E-2,1.2197057E-3],"categories":[],"categories_nodes":[],"categories_segments":[],"categories_sizes":[],"default_left":[0,0,0,0,0,0,0,0,0,0,0,0,0,0,0,0,0,0,0,0,0,0,0,0,0,0,0,0,0,0,0,0,0,0,0,0,0,0,0,0,0],"id":32,"left_children":[1,3,5,7,9,11,13,15,-1,17,-1,19,-1,-1,-1,21,23,25,27,29,31,33,-1,35,-1,-1,-1,-1,-1,37,39,-1,-1,-1,-1,-1,-1,-1,-1,-1,-1],"loss_changes":[5.444383E-1,3.7465543E-1,1.8692404E-1,1.1340094E0,8.1520903E-1,4.0846878E-1,5.4544717E-2,7.4676764E-1,0E0,8.005972E-1,0E0,4.789953E-1,0E0,0E0,0E0,6.430805E-1,1.9717599E0,9.5929646E-1,6.610249E-1,9.638348E-1,1.9210523E-1,5.4592496E-1,0E0,8.97353E-1,0E0,0E0,0E0,0E0,0E0,4.4551384E-1,7.202686E-1,0E0,0E0,0E0,0E0,0E0,0E0,0E0,0E0,0E0,0E0],"parents":[2147483647,0,0,1,1,2,2,3,3,4,4,5,5,6,6,7,7,9,9,11,11,15,15,16,16,17,17,18,18,19,19,20,20,21,21,23,23,29,29,30,30],"right_children":[2,4,6,8,10,12,14,16,-1,18,-1,20,-1,-1,-1,22,24,26,28,30,32,34,-1,36,-1,-1,-1,-1,-1,38,40,-1,-1,-1,-1,-1,-1,-1,-1,-1,-1],"split_conditions":[1E0,1E0,1.1E1,1.2E1,1.8E1,1E0,1.1E1,1E1,-6.993392E-2,8E0,6.578529E-2,8E0,6.3332796E-2,-1.3876555E-2,7.768687E-3,1E0,1E0,1E1,1E0,1.4E1,1E0,3E2,3.4617078E-2,1.1E1,7.929089E-2,1.2128009E-2,-7.406446E-2,-1.0382631E-2,6.5692015E-2,1E0,4E0,7.0298286E-3,5.6376036E-2,6.342105E-3,-2.579236E-2,2.4912259E-2,-5.8439583E-2,5.398199E-2,-1.2263914E-2,-8.0034606E-2,1.2197057E-3],"split_indices":[1,10,0,0,2,11,2,0,0,0,0,0,0,0,0,4,5,2,7,2,12,3,0,0,0,0,0,0,0,10,0,0,0,0,0,0,0,0,0,0,0],"split_type":[0,0,0,0,0,0,0,0,0,0,0,0,0,0,0,0,0,0,0,0,0,0,0,0,0,0,0,0,0,0,0,0,0,0,0,0,0,0,0,0,0],"sum_hessian":[5.4574154E1,4.11897E1,1.3384454E1,3.3160946E1,8.028753E0,1.0604713E1,2.7797403E0,3.131044E1,1.8505064E0,6.7866616E0,1.2420921E0,9.43717E0,1.1675434E0,1.4510838E0,1.3286566E0,2.5402073E1,5.908366E0,3.6815822E0,3.1050792E0,6.2590613E0,3.1781087E0,2.3577835E1,1.824239E0,3.418229E0,2.490137E0,2.185744E0,1.4958383E0,1.8269663E0,1.278113E0,2.926553E0,3.332508E0,1.6086498E0,1.5694587E0,7.0942163E0,1.6483618E1,1.5949839E0,1.8232453E0,1.8271054E0,1.0994477E0,1.0074859E0,2.3250222E0],"tree_param":{"num_deleted":"0","num_feature":"14","num_nodes":"41","size_leaf_vector":"1"}},{"base_weights":[1.0838398E-2,-4.2554706E-2,1.6686271E-1,-8.661843E-2,1.2815751E-1,8.042818E-3,2.4290511E-1,-3.328803E-2,-6.7197196E-2,-3.0972432E-2,6.218655E-2,2.3338553E-1,-3.6300313E-2,7.286476E-2,9.680591E-2,-1.02835655E-1,2.3902558E-1,-2.9567415E-1,2.7803072E-1,3.640276E-2,-5.2717538E-3,-3.9581124E-2,2.5616828E-1,-1.4781879E-1,3.2571163E-2,-2.1433419E-1,7.4326307E-1,1.1296928E-2,-7.018359E-2,-9.717635E-3,6.227101E-2,4.640561E-2,1.1472031E-1,5.7887766E-3,-2.350757E-2,2.3435406E-2,-5.5447895E-2,2.5687147E-2,9.034238E-2,-9.187665E-3,4.4072557E-2],"categories":[],"categories_nodes":[],"categories_segments":[],"categories_sizes":[],"default_left":[0,0,0,0,0,0,0,0,0,0,0,0,0,0,0,0,0,0,0,0,0,0,0,0,0,0,0,0,0,0,0,0,0,0,0,0,0,0,0,0,0],"id":33,"left_children":[1,3,5,7,9,11,13,15,-1,17,-1,19,-1,-1,21,23,25,27,29,-1,-1,-1,31,33,-1,35,37,-1,-1,-1,-1,-1,39,-1,-1,-1,-1,-1,-1,-1,-1],"loss_changes":[4.6656355E-1,3.2619384E-1,1.7032722E-1,1.0356165E0,7.261113E-1,5.573756E-1,6.116084E-1,6.3276774E-1,0E0,7.166515E-1,0E0,1.7339605E-1,0E0,0E0,7.720449E-1,5.547461E-1,1.7215416E0,8.5313463E-1,5.900022E-1,0E0,0E0,0E0,1.5441766E-1,4.528435E-1,0E0,7.976014E-1,3.741336E-2,0E0,0E0,0E0,0E0,0E0,4.1300339E-1,0E0,0E0,0E0,0E0,0E0,0E0,0E0,0E0],"parents":[2147483647,0,0,1,1,2,2,3,3,4,4,5,5,6,6,7,7,9,9,11,11,14,14,15,15,16,16,17,17,18,18,22,22,23,23,25,25,26,26,32,32],"right_children":[2,4,6,8,10,12,14,16,-1,18,-1,20,-1,-1,22,24,26,28,30,-1,-1,-1,32,34,-1,36,38,-1,-1,-1,-1,-1,40,-1,-1,-1,-1,-1,-1,-1,-1],"split_conditions":[1E0,1E0,1.3E1,1.2E1,1.8E1,1E0,1.4E1,1E1,-6.7197196E-2,8E0,6.218655E-2,1E0,-3.6300313E-2,7.286476E-2,4E0,1E0,1E0,1E1,1E0,3.640276E-2,-5.2717538E-3,-3.9581124E-2,3E2,3E2,3.2571163E-2,1.1E1,9E0,1.1296928E-2,-7.018359E-2,-9.717635E-3,6.227101E-2,4.640561E-2,1E0,5.7887766E-3,-2.350757E-2,2.3435406E-2,-5.5447895E-2,2.5687147E-2,9.034238E-2,-9.187665E-3,4.4072557E-2],"split_indices":[1,10,2,0,2,10,2,0,0,0,0,7,0,0,0,4,5,2,7,0,0,0,3,3,0,0,2,0,0,0,0,0,5,0,0,0,0,0,0,0,0],"split_type":[0,0,0,0,0,0,0,0,0,0,0,0,0,0,0,0,0,0,0,0,0,0,0,0,0,0,0,0,0,0,0,0,0,0,0,0,0,0,0,0,0],"sum_hessian":[5.4153473E1,4.088833E1,1.3265145E1,3.2891167E1,7.9971623E0,4.652934E0,8.612211E0,3.1113358E1,1.777808E0,6.756652E0,1.2405107E0,3.1256676E0,1.5272664E0,1.0693959E0,7.5428157E0,2.5279463E1,5.8338943E0,3.6624334E0,3.0942185E0,1.958844E0,1.1668236E0,1.481016E0,6.0617995E0,2.3470877E1,1.8085872E0,3.3746665E0,2.4592278E0,2.1854706E0,1.4769627E0,1.8253105E0,1.2689081E0,1.5309659E0,4.5308337E0,7.0908675E0,1.6380009E1,1.5892663E0,1.7854003E0,1.254197E0,1.2050308E0,3.2129123E0,1.3179214E0],"tree_param":{"num_deleted":"0","num_feature":"14","num_nodes":"41","size_leaf_vector":"1"}},{"base_weights":[1.3416479E-2,1.4510188E-1,-4.220832E-2,-6.640614E-3,7.780054E-2,-3.420593E-1,7.248535E-4,1.03160694E-1,-3.4660167E-1,1.2823276E-3,-5.566686E-2,3.2708374E-1,-3.57674E-2,-2.1315949E-2,4.1497204E-2,-5.3999543E-2,7.3893717E-3,8.305464E-2,-2.8142646E-2,-1.5532461E-1,1.2502326E-1,1.141521E-1,-4.9931645E-2,-2.916563E-1,-7.2596944E-3,-1.113903E-1,3.9693165E-1,-8.008308E-3,7.069125E-2,-9.788679E-3,-8.498072E-2,4.9435075E-2,-2.1934798E-2,2.072167E-2,-2.592814E-2,6.1514404E-2,-1.9120129E-2],"categories":[],"categories_nodes":[],"categories_segments":[],"categories_sizes":[],"default_left":[0,0,0,0,0,0,0,0,0,0,0,0,0,0,0,0,0,0,0,0,0,0,0,0,0,0,0,0,0,0,0,0,0,0,0,0,0],"id":34,"left_children":[1,3,5,7,-1,9,11,13,15,-1,-1,17,19,21,-1,-1,-1,-1,-1,23,25,27,-1,29,31,33,35,-1,-1,-1,-1,-1,-1,-1,-1,-1,-1],"loss_changes":[4.074408E-1,1.5893524E0,5.060764E-1,5.69431E-1,0E0,3.821085E-1,4.3292466E-1,4.5819283E-1,3.4239134E-1,0E0,0E0,1.3536847E0,6.482843E-1,6.5436774E-1,0E0,0E0,0E0,0E0,0E0,3.8561794E-1,9.766274E-1,9.7792405E-1,0E0,9.95616E-1,1.1971209E0,4.5611128E-1,1.0115076E0,0E0,0E0,0E0,0E0,0E0,0E0,0E0,0E0,0E0,0E0],"parents":[2147483647,0,0,1,1,2,2,3,3,5,5,6,6,7,7,8,8,11,11,12,12,13,13,19,19,20,20,21,21,23,23,24,24,25,25,26,26],"right_children":[2,4,6,8,-1,10,12,14,16,-1,-1,18,20,22,-1,-1,-1,-1,-1,24,26,28,-1,30,32,34,36,-1,-1,-1,-1,-1,-1,-1,-1,-1,-1],"split_conditions":[3E2,1E0,7E0,1E0,7.780054E-2,6E0,8E0,1.8E1,9E0,1.2823276E-3,-5.566686E-2,4E2,4E2,1.6E1,4.1497204E-2,-5.3999543E-2,7.3893717E-3,8.305464E-2,-2.8142646E-2,1.4E1,7E0,1E0,-4.9931645E-2,1E0,1.7E1,3E0,1E0,-8.008308E-3,7.069125E-2,-9.788679E-3,-8.498072E-2,4.9435075E-2,-2.1934798E-2,2.072167E-2,-2.592814E-2,6.1514404E-2,-1.9120129E-2],"split_indices":[3,7,2,9,0,2,2,2,0,0,0,3,3,2,0,0,0,0,0,2,0,8,0,10,2,0,6,0,0,0,0,0,0,0,0,0,0],"split_type":[0,0,0,0,0,0,0,0,0,0,0,0,0,0,0,0,0,0,0,0,0,0,0,0,0,0,0,0,0,0,0,0,0,0,0,0,0],"sum_hessian":[5.37874E1,1.5495346E1,3.8292053E1,1.3296852E1,2.198494E0,3.9233823E0,3.436867E1,1.05771675E1,2.719684E0,1.8328274E0,2.090555E0,2.6556313E0,3.1713041E1,8.225246E0,2.351921E0,1.6682401E0,1.0514437E0,1.253576E0,1.4020551E0,1.8208189E1,1.3504853E1,7.0020223E0,1.2232244E0,8.9748E0,9.233388E0,7.5397115E0,5.9651413E0,5.925318E0,1.0767045E0,7.5344815E0,1.4403185E0,2.3483734E0,6.885015E0,2.2630975E0,5.276614E0,4.3173623E0,1.647779E0],"tree_param":{"num_deleted":"0","num_feature":"14","num_nodes":"37","size_leaf_vector":"1"}},{"base_weights":[1.327792E-2,5.246486E-2,-1.779032E-1,-2.9655172E-2,2.2624265E-1,3.621193E-3,-5.225722E-2,-6.9686785E-2,2.211744E-1,2.924999E-1,-2.5703436E-2,-1.6956332E-1,1.9113643E-1,-4.9293315E-4,-4.6932444E-1,-1.1660714E-2,5.6167867E-2,4.9742544E-1,-4.5957904E-2,-3.7766624E-2,1.596891E-2,3.008132E-2,1.0335277E-3,1.4897497E-1,-2.7178997E-1,1.7216373E-2,-8.610464E-2,7.2483695E-1,-2.2304786E-2,-4.504302E-2,1.7710985E-1,-1.7430825E-2,3.151731E-2,1.2210105E-2,-4.2933594E-2,8.91742E-2,2.0093435E-2,-3.752931E-2,5.0076067E-2],"categories":[],"categories_nodes":[],"categories_segments":[],"categories_sizes":[],"default_left":[0,0,0,0,0,0,0,0,0,0,0,0,0,0,0,0,0,0,0,0,0,0,0,0,0,0,0,0,0,0,0,0,0,0,0,0,0,0,0],"id":35,"left_children":[1,3,5,7,9,11,-1,13,15,17,-1,19,21,23,25,-1,-1,27,29,-1,-1,-1,-1,31,33,-1,-1,35,-1,-1,37,-1,-1,-1,-1,-1,-1,-1,-1],"loss_changes":[4.1722572E-1,6.625299E-1,5.955904E-1,3.3765587E-1,5.511235E-1,2.6651195E-1,0E0,7.8609014E-1,6.0106814E-1,9.619223E-1,0E0,3.5339534E-1,7.484679E-2,1.0639818E0,1.2025664E0,0E0,0E0,1.5572572E0,6.2305945E-1,0E0,0E0,0E0,0E0,9.6403503E-1,6.307887E-1,0E0,0E0,4.0751362E-1,0E0,0E0,1.010134E0,0E0,0E0,0E0,0E0,0E0,0E0,0E0,0E0],"parents":[2147483647,0,0,1,1,2,2,3,3,4,4,5,5,7,7,8,8,9,9,11,11,12,12,13,13,14,14,17,17,18,18,23,23,24,24,27,27,30,30],"right_children":[2,4,6,8,10,12,-1,14,16,18,-1,20,22,24,26,-1,-1,28,30,-1,-1,-1,-1,32,34,-1,-1,36,-1,-1,38,-1,-1,-1,-1,-1,-1,-1,-1],"split_conditions":[1.1E1,8E0,1E0,2.3E1,1E0,1.1E1,-5.225722E-2,7E0,7E0,1E0,-2.5703436E-2,1E0,1.2E1,4E2,2E1,-1.1660714E-2,5.6167867E-2,1E0,9E0,-3.7766624E-2,1.596891E-2,3.008132E-2,1.0335277E-3,3E0,3E0,1.7216373E-2,-8.610464E-2,1E0,-2.2304786E-2,-4.504302E-2,8E0,-1.7430825E-2,3.151731E-2,1.2210105E-2,-4.2933594E-2,8.91742E-2,2.0093435E-2,-3.752931E-2,5.0076067E-2],"split_indices":[0,0,6,2,8,2,0,0,0,5,0,5,0,3,2,0,0,9,0,0,0,0,0,0,0,0,0,12,0,0,2,0,0,0,0,0,0,0,0],"split_type":[0,0,0,0,0,0,0,0,0,0,0,0,0,0,0,0,0,0,0,0,0,0,0,0,0,0,0,0,0,0,0,0,0,0,0,0,0,0,0],"sum_hessian":[5.344511E1,4.4955936E1,8.489173E0,3.1092356E1,1.3863583E1,6.2087483E0,2.2804239E0,2.7435854E1,3.656501E0,1.2539214E1,1.3243685E0,3.2774818E0,2.9312668E0,2.4240118E1,3.1957362E0,2.1656818E0,1.4908193E0,7.5177636E0,5.0214505E0,1.9181069E0,1.3593749E0,1.4113445E0,1.5199223E0,1.5920039E1,8.320079E0,1.4241035E0,1.7716327E0,5.7095375E0,1.8082258E0,1.4226364E0,3.5988142E0,5.388909E0,1.0531131E1,2.44133E0,5.878749E0,3.7975874E0,1.9119502E0,1.2706034E0,2.3282108E0],"tree_param":{"num_deleted":"0","num_feature":"14","num_nodes":"39","size_leaf_vector":"1"}},{"base_weights":[1.1031845E-2,-3.874613E-2,1.5641047E-1,-9.863229E-2,8.1099965E-2,2.150867E-1,-6.394601E-2,-5.8959853E-3,-3.2469964E-1,6.4354725E-2,-2.7968682E-2,1.11828886E-1,6.1216384E-2,-1.3598372E-2,4.1300897E-3,2.6726177E-1,-1.9186945E-1,-5.5654436E-1,5.2253135E-2,3.979903E-2,-1.849156E-1,-3.288745E-2,3.3725065E-1,-4.5279816E-2,4.4713974E-1,-4.1268265E-1,3.820521E-1,-7.492065E-2,5.566435E-3,-5.4555523E-1,9.487485E-2,3.129191E-1,-3.351893E-1,4.342062E-3,